1466 64
， 0.217028 0.643554 -0.296156 0.180271 -0.131949 0.090740 0.085333 -0.047470 -0.166661 0.014643 -0.149545 -0.095577 0.271913 0.218681 0.117227 -0.005450 0.166479 -0.031747 0.248961 -0.044365 -0.070484 0.250623 -0.152161 0.075811 0.075119 0.177365 -0.177325 -0.179589 -0.141896 -0.214998 0.309070 0.275180 -0.332280 0.123398 -0.094968 0.038411 -0.141333 -0.022385 -0.261257 -0.109440 -0.624561 0.317155 0.082895 -0.099157 -0.352564 -0.231429 0.192675 0.020337 -0.081537 -0.295728 0.182454 -0.224829 -0.218969 0.199522 -0.051644 -0.034302 0.016371 -0.166540 -0.029993 0.062655 -0.280425 0.041814 -0.042168 0.195452
。 0.088409 0.733759 -0.587076 0.060593 -0.189077 0.215763 -0.178917 0.304550 -0.259117 -0.084744 -0.223698 -0.271622 0.287905 0.064087 0.145420 -0.138950 0.323961 0.108651 0.553771 0.579239 -0.416834 0.170026 0.244423 -0.226408 -0.327340 -0.372441 0.041456 -0.030017 0.293414 0.086180 0.157648 0.270722 -0.568522 0.229548 -0.125913 -0.128940 -0.042852 -0.046333 -0.311907 -0.298772 -0.500818 0.459997 0.368318 0.056146 -0.014390 -0.403778 0.233467 -0.653295 0.100158 -0.689494 0.414525 -0.592523 -0.513280 0.373165 -0.336458 0.168145 -0.125352 -0.037866 0.024368 0.232685 0.021976 0.039816 0.108865 0.241092
无 0.491082 0.157124 -0.239646 0.458722 -0.007884 -0.673270 0.260139 0.133576 -0.070931 0.050303 -0.575316 -0.108726 0.348806 0.489933 -0.024575 0.336445 0.339974 0.269414 0.580592 -0.163474 0.067062 0.405455 0.017666 -0.020233 0.646323 0.485839 -0.030620 -0.116441 -0.553558 0.031257 0.488620 0.286058 -0.788830 0.579572 -0.079521 0.582709 0.547262 -0.013612 0.103208 -0.642335 -0.456520 -0.210804 0.792151 -0.442575 -0.219784 0.304150 0.282506 0.261843 0.205560 -0.430090 0.435746 -0.330776 -0.270862 0.420964 -0.602007 0.178740 0.091182 -0.160453 -0.286240 -0.161027 0.249080 -0.150509 0.222335 0.170123
1 0.127592 0.377899 -0.819713 0.048116 -0.591282 0.165704 -0.341800 -0.551161 0.134386 -0.159821 -0.358030 -0.119891 0.375484 0.262915 0.311618 0.206709 0.356040 0.299962 0.261141 -0.546596 0.327374 -0.207372 -0.083678 0.452285 -0.187007 -0.672484 0.123925 -0.288733 -0.612951 -0.243769 0.053092 0.096054 0.079884 -0.549883 -0.048692 -0.260369 -0.465936 0.225268 -0.078213 0.245369 -0.326712 -0.365905 0.538334 0.596070 0.020633 0.009510 -0.373538 -0.030620 -0.108310 -0.201485 0.295654 0.055608 -0.415758 0.275815 0.157137 -0.042468 0.131265 0.242279 0.235180 -0.194390 -0.035585 0.310966 -0.049400 0.006079
、 0.489590 0.593739 -0.301750 -0.029255 -0.430417 0.332041 0.369478 -0.113907 -0.368530 0.269387 0.028768 -0.079250 0.320528 0.458470 0.055212 0.054709 0.266428 0.131098 0.008196 -0.635072 0.293640 0.608862 -0.193291 0.341256 -0.000561 0.207663 0.094592 -0.307404 0.315022 -0.169602 -0.226112 0.472108 -0.516382 -0.419106 0.288921 -0.023556 -0.054532 -0.053137 0.228795 -0.220899 -0.182835 -0.007270 0.063131 0.001934 -0.585625 -0.319860 -0.183089 0.013701 -0.211449 -0.200193 -0.018955 0.215392 -0.450882 0.242667 -0.000421 -0.211990 -0.310783 -0.587165 -0.288657 0.021069 -0.082779 0.066517 -0.132186 -0.115961
0 -0.073663 0.375012 -0.683401 0.228874 -0.586546 0.310790 -0.166289 -0.460963 0.395966 -0.281621 -0.493652 0.219582 0.204390 0.440974 0.492402 0.104943 0.183076 0.386240 0.298370 -0.414512 0.421183 -0.177421 -0.271485 0.291744 -0.273243 -0.733656 -0.081025 -0.385726 -0.380941 -0.339875 -0.035866 0.182054 0.236995 -0.521978 -0.205315 0.037579 -0.348430 0.358131 -0.211015 0.013271 -0.749854 -0.300907 0.526686 0.685385 0.198013 -0.166450 -0.512911 -0.100164 -0.198735 -0.227470 0.288177 -0.061820 -0.390547 0.251359 -0.223049 -0.034042 0.223191 0.455122 0.275814 -0.159568 -0.070016 0.204049 -0.183633 -0.256117
及 0.170314 0.879412 -0.230582 0.377164 0.212040 0.490830 0.167198 -0.320559 -0.125817 0.068338 0.300941 0.398094 0.368039 0.731699 0.198933 0.521545 0.540070 -0.308491 0.297787 0.136447 -0.285709 1.108694 0.117217 0.086874 -0.021018 0.593778 0.038166 0.253830 -0.112165 -0.112359 0.141887 0.185969 -0.768974 0.188536 -0.302570 0.713697 -0.018863 -0.050854 0.051329 -0.573246 -0.177751 0.494162 0.002833 0.041966 -0.110175 0.042807 0.101507 0.096973 -0.139151 -0.225477 -0.165802 -0.227505 -0.206649 0.354603 0.253946 0.353757 0.279516 -0.247227 -0.125125 -0.004793 0.472449 -0.236176 -0.393740 0.280270
： 0.771423 0.395167 -0.625347 0.421515 -0.475045 -0.246025 0.215013 -0.181121 -0.009051 -0.308312 -0.058238 -0.167996 0.918669 0.959877 0.461620 0.190658 0.187818 0.118786 -0.074605 -0.825974 0.223929 0.034775 0.363895 0.373970 0.065347 -0.230002 0.454884 -0.553459 -0.258857 0.322637 -0.102489 0.401450 -0.155996 -0.323687 0.273205 -0.034431 -0.312081 0.234953 0.303331 0.116664 -0.238101 0.368947 -0.343129 -0.069977 -0.083206 -0.100894 0.031756 0.001967 0.131448 0.492770 -0.224964 0.099745 -0.149810 -0.060482 0.251974 -0.649877 -0.654314 0.011962 -0.337703 0.002272 0.110706 0.162732 0.015816 0.040297
2 0.215774 0.240586 -0.541206 0.129611 -0.530539 0.375627 -0.135429 -0.478640 0.259948 -0.247398 -0.085098 0.024697 0.215369 0.381309 0.327425 -0.012648 0.198426 0.313351 0.075669 -0.279654 0.531615 -0.022992 -0.237033 0.151677 -0.199646 -0.584549 -0.004481 -0.397314 -0.348059 -0.443678 -0.156668 0.307200 0.004242 -0.523346 0.024715 -0.113344 -0.285276 0.145694 -0.114671 -0.010107 -0.502965 -0.281267 0.276448 0.749266 -0.012011 0.106644 -0.406400 -0.057827 -0.078829 -0.266919 0.221515 0.176449 -0.459356 0.343255 0.005500 -0.267544 -0.009527 0.216352 0.240833 -0.360808 -0.058178 0.116118 -0.179206 -0.158418
痛 0.021353 0.201724 -0.536350 -0.124541 -0.279719 0.107056 -0.000154 -0.231376 0.311394 0.294459 -0.121415 0.057087 0.345085 0.584883 -0.480159 0.258425 0.416543 0.159230 0.248722 0.473044 0.307324 0.280884 -0.857305 -0.040650 0.389985 0.453588 -0.254501 0.297106 -0.339103 -0.008276 0.051488 0.635231 -0.265060 0.555914 -0.229024 0.043261 -0.116783 0.319992 0.002220 -0.161409 -0.109984 -0.773180 0.676652 -0.299986 -0.455644 -0.046338 0.585656 0.518450 0.199614 -0.544017 0.383191 0.190384 -0.021200 0.014055 0.178967 0.136997 -0.040043 -0.263016 -0.078685 -0.106298 -0.133743 0.108184 -0.109004 0.221777
双 0.056437 0.197186 -0.193631 0.442404 -0.068958 -0.221653 0.135828 0.341895 0.329162 0.849894 0.293302 -0.097023 0.652875 0.986884 -0.702302 0.185996 -0.149772 -0.191288 0.215377 -0.561900 -0.280892 0.224683 0.757156 0.468329 0.651879 0.975879 0.157773 0.053731 -0.372763 -0.849015 -0.094398 0.650877 0.021068 0.357938 0.220215 0.268324 -0.052641 -0.160466 -0.377921 0.140950 -0.660439 0.031734 -0.067016 0.138473 0.087914 0.089610 0.506407 -0.524010 -0.240230 -0.413247 0.032208 -0.630658 -0.287906 0.541837 -0.441019 0.144931 -0.343192 0.200291 0.244798 0.944789 -0.618283 0.365462 0.137968 0.349135
未 0.366154 0.946817 0.388033 -0.041460 0.027222 -0.171858 -0.292547 -0.020660 -0.318121 -0.185243 -0.138401 0.238147 0.527788 0.796405 0.124951 -0.363787 0.247507 -0.631389 0.695313 -0.202150 0.213162 0.347863 0.228532 0.045069 0.105759 0.414958 0.725624 0.506941 0.096607 -0.152914 0.013663 -0.336935 -0.947243 0.611637 -0.554698 0.780042 -0.421860 0.340450 -0.747506 0.002470 -0.807134 -0.426846 0.605021 -0.456054 0.394670 0.135186 0.798774 -0.093645 -0.014020 -0.233128 -0.401511 -0.138171 0.126023 0.380481 0.241973 0.170523 0.062732 0.295777 -0.365157 -0.422892 0.245232 -0.079129 -0.033887 0.602416
常 0.372556 0.469114 -0.006422 -0.040482 -0.256013 0.223229 -0.719297 -0.125896 -0.074824 0.338374 -0.561215 0.146837 0.105109 0.562202 0.484978 -0.188235 -0.212080 -0.218503 0.374003 0.479001 0.379895 -0.154343 0.719356 0.620721 0.453827 0.454115 -0.096234 -0.409184 -0.025294 -0.396346 0.127968 0.698453 -1.448804 -0.319309 -0.181491 -0.056380 0.423134 1.062741 -0.075327 0.513604 -0.052004 0.418342 0.974454 -0.086703 0.781068 0.220442 0.844808 -0.164840 0.368805 -0.159793 -0.515763 0.003800 0.063926 0.215228 0.416013 -0.842140 0.180012 0.112201 0.680959 0.139490 0.280658 0.013884 -0.726837 0.102969
性 0.292910 -0.212664 -0.905959 0.446974 0.208675 0.737281 -0.167066 -0.422479 -0.068629 0.430148 -0.217975 -0.608425 0.708547 0.058434 -0.186467 -0.019319 0.358868 -0.654705 0.680280 0.162392 -0.137513 -0.202483 -0.368791 0.008539 0.593680 -0.193305 -0.087252 -0.669266 -0.219780 0.034552 -0.406386 -0.546838 -0.511588 -0.080904 0.408585 0.442461 -0.634744 -0.419197 -0.787197 -0.446220 -0.217793 0.109475 0.406971 0.327337 -0.132757 0.517793 0.178419 0.196331 0.055945 -1.028419 -0.256061 -0.371250 -0.426982 0.363873 0.199781 0.013170 -0.571923 0.086183 -0.176677 0.056002 -0.621078 -0.124623 -0.297765 -0.026894
. 0.462188 0.551283 -0.587467 0.402411 -0.746617 0.318195 -0.107703 -0.740843 0.396275 -0.137466 0.100580 -0.039650 0.235839 0.454364 0.802962 0.371755 0.251038 -0.135970 0.234167 -0.539123 0.203132 0.295041 -0.398813 -0.050922 -0.164347 -0.056858 -0.201282 -0.564664 -0.112289 -0.138588 -0.307426 -0.159368 -0.000485 -0.848957 -0.161151 -0.339087 -0.452932 0.404793 0.320134 0.048332 -0.655226 0.234923 0.292454 0.119324 0.204473 0.266800 -0.550997 -0.377378 -0.102899 0.324949 -0.222516 -0.015702 -0.401098 0.119131 0.033822 -0.189589 0.059137 0.130702 -0.083023 0.149680 0.232296 -0.178797 0.006251 -0.469532
音 -0.204804 0.647079 -0.986388 0.461895 0.109418 0.713966 0.227577 -0.024905 0.591077 -0.117962 -0.253032 -0.570992 1.017542 0.441894 0.342003 0.092034 -0.026692 -0.447273 0.225450 0.719670 0.153532 0.111608 -0.329032 0.819907 0.470694 0.763019 -0.475384 0.297350 -0.751168 0.934454 0.448403 -0.094035 -0.531391 0.116651 -0.095335 2.065189 0.063092 -0.420021 0.351871 -0.362928 -0.765587 0.460443 -0.144912 0.693556 0.482111 0.027831 1.036943 0.442785 -0.932468 -1.332885 -0.781076 -0.545105 0.348430 -0.490560 0.041018 -0.966629 0.720450 0.540964 -0.935557 -0.299755 -0.453303 0.823305 0.083546 -0.112129
/ -0.279674 0.878198 -0.928255 0.252169 -0.530868 -0.262366 -0.697022 -0.718651 -0.350509 0.000406 -0.666000 -0.252432 0.004492 0.380397 0.322255 0.172759 -0.287674 0.229448 1.139947 -1.192412 0.925332 -0.189036 -0.123869 0.759256 -0.008701 0.049183 -0.178481 0.672994 -0.269632 -0.504382 -0.518084 -0.401547 -0.039293 -0.942075 -0.879086 0.345559 0.007614 0.342189 0.977757 0.086190 -1.309320 -1.102502 0.533940 0.588348 0.313025 0.143832 -0.645255 -0.038334 0.042780 -0.334939 -0.058792 0.370275 -0.671464 0.231769 0.763718 -0.601013 0.877183 0.478636 -0.265661 0.593896 -0.192397 -0.385586 -0.274012 0.518506
3 0.431257 0.238340 -0.808966 -0.069955 -0.507310 0.191177 -0.008189 -0.646033 0.200466 -0.089745 -0.361641 -0.066074 0.269680 0.390728 0.503186 0.158322 0.249022 0.022834 -0.010365 -0.510155 0.177305 -0.089479 -0.039136 -0.185449 -0.142000 -0.227707 0.080929 -0.538106 -0.119676 -0.282901 0.088628 0.251838 -0.150729 -0.683125 -0.147164 -0.303771 -0.387897 0.144485 0.069872 0.122444 -0.457904 -0.438059 0.638497 0.649437 0.120794 0.301311 -0.254488 -0.200493 -0.102737 0.120322 0.110584 -0.220489 -0.210040 0.403533 -0.336732 -0.022455 0.039391 0.215526 0.332729 -0.150765 -0.072866 0.301345 -0.039565 -0.217214
部 0.411092 0.591256 -0.594970 0.033901 0.105805 -0.464388 0.139817 -0.214975 0.310865 0.596123 0.008225 0.422481 0.207020 0.514949 0.093486 -0.155128 0.074331 0.096639 0.050203 -0.181393 0.075506 -0.085573 -0.355463 0.697103 0.396131 0.334527 -0.186877 0.114504 -0.033610 -0.059670 -0.282113 0.302141 -0.139662 -0.038018 -0.635012 0.550575 -0.461069 -0.003073 -0.196893 -0.463264 -0.341943 -0.523171 0.258317 -0.139062 -1.039730 -0.407213 0.594623 -0.738674 0.521868 -0.005669 -0.460755 0.009112 0.426083 -0.002347 -0.103692 0.292005 -0.507524 -0.005227 0.324713 -0.285764 -0.254352 -0.276273 0.291998 -0.063661
查 0.414752 -0.387070 0.184178 0.753851 0.205518 -0.205021 0.055891 -0.169647 0.306290 -0.136387 -0.763713 0.122543 0.752642 0.753167 0.467319 -0.058951 -0.087232 -0.157379 -0.271107 -0.464898 -0.091069 0.251276 -0.338785 0.008365 -0.004381 -0.383288 1.178052 -0.454942 0.203260 0.865624 0.030939 0.263641 -0.521832 -0.603337 -0.206007 -0.143867 -0.529815 0.250239 0.040494 0.438223 -0.577744 0.464804 0.295511 -0.159820 -0.435681 -0.004873 0.711753 0.032234 -0.050340 -0.168562 -0.024531 0.093073 0.330008 -0.135871 0.256599 -0.917285 -0.696103 0.410916 -0.079145 0.756159 -0.313433 0.140646 0.588973 -0.271043
体 0.420533 0.651791 -0.286587 0.171320 0.640406 -0.041305 0.402565 0.071166 0.380265 -0.455028 -1.060238 -0.033427 0.152139 0.581312 -0.082880 0.459942 0.352037 -0.749457 -0.112570 -0.478439 -0.003682 0.474128 -0.034197 -0.581125 -0.767788 -0.162458 0.251024 -0.091381 -0.141032 0.643812 0.262440 0.056707 -0.005910 -0.165312 -0.496983 -0.102403 -0.099451 -0.485719 0.837133 0.441399 -0.613346 -0.003877 0.362271 0.404155 -0.256663 -0.173830 0.929744 0.029660 0.287709 -0.117679 -0.124688 -0.538247 0.636375 0.392480 -0.189461 -0.204318 -0.816348 -0.191492 -0.061719 0.068077 -0.328711 -0.064505 0.480775 -0.439448
病 1.214851 0.197025 -0.239173 0.128733 0.304786 -0.109151 -0.177833 -0.147553 0.070345 0.223883 0.259815 0.487256 1.275952 0.263229 0.028172 -0.030801 0.891688 -0.011229 0.566249 -0.159713 0.074949 -0.541157 0.379888 -0.086241 -0.649982 -0.719437 -0.303499 0.323690 -0.377807 0.679262 0.504180 -0.127330 -0.038437 -0.394867 0.818452 0.075859 -0.204336 0.489463 -0.081988 0.184235 -0.252111 -0.316155 0.624317 -0.551341 0.138458 -0.306170 0.517938 0.349999 0.411081 -0.946444 -0.308136 -0.664511 -0.346940 0.791113 1.078319 0.004432 0.461092 -0.417641 -0.413813 0.658014 -0.050071 0.278622 0.222507 -0.000658
院 0.154062 0.506750 -0.212214 -0.467701 -0.098639 0.026750 -0.386245 -0.172353 0.650339 0.492280 -0.270437 -0.410492 0.374991 0.521955 0.564684 -0.456995 -0.079619 -0.199295 0.206106 -0.029776 -0.119316 0.269254 -0.228625 0.217026 0.094000 -0.360098 1.147471 0.238008 -0.778883 0.265332 -0.291504 -0.078428 0.383390 -0.886856 0.320849 -0.295598 -0.588975 0.264528 -0.124335 -0.200164 -0.196014 -0.522967 0.115582 0.171070 -0.114082 0.669986 0.789521 0.254654 0.262905 -0.123362 0.155479 0.474579 -0.369732 1.331625 0.210796 -1.192492 0.115831 0.044321 0.407631 0.545904 0.017150 0.265628 0.526417 0.354090
血 0.241076 0.142511 -0.196726 0.256616 -0.385050 0.487088 0.356431 -0.582325 -0.101237 0.038823 0.046238 -0.357920 0.062394 0.506580 -0.334365 -0.389266 0.211668 0.543194 0.896742 -0.526923 0.118178 0.316313 0.165959 0.633001 -0.637147 -0.112107 -0.000760 0.097937 -0.118203 0.041474 -0.678710 0.156027 -0.078284 -0.522723 -0.996717 -0.399316 -0.476784 -0.313864 0.296209 -0.257927 0.145490 0.157440 -0.043754 -0.525165 -0.092901 -0.322450 0.796558 0.101886 0.018182 -0.523516 0.818871 -0.169296 -0.323033 0.011964 -0.336329 -0.292766 0.397351 0.204103 -0.599034 -0.622213 -0.412779 -0.342481 0.017080 -0.485763
心 -0.037418 -0.180413 0.160392 -0.006206 0.264431 0.408263 -0.767106 -0.361795 0.308592 0.567609 0.194556 -0.211419 0.988892 1.071372 -0.099785 0.145186 0.414941 -0.269653 0.103112 -0.091231 0.261026 0.980187 0.123257 0.887240 -0.676586 -0.306777 -0.663706 0.102328 0.075581 0.257853 0.479851 -0.363745 -0.570060 0.043304 0.561344 0.008829 -0.051550 -0.336476 0.201129 -0.440558 -0.536289 0.181879 0.891271 0.045775 0.264851 -0.507027 0.538801 -0.140512 -0.158672 0.152246 0.165515 -0.154083 -0.076884 -0.151529 -0.457214 -0.146728 -0.144513 0.354873 -0.274355 0.102537 -0.613315 0.515344 -0.292215 0.351728
腹 0.412850 0.103450 -0.395267 0.004737 -0.679643 0.189595 -0.015521 0.006338 0.204016 0.568236 0.293648 0.430810 0.668600 0.705176 -0.070527 -0.733861 0.553718 0.358205 -0.028310 0.350574 0.385418 0.302207 -0.384063 0.191251 0.486053 0.134629 0.192116 0.524588 -0.031338 0.439160 0.473897 -0.021100 -0.952196 0.317289 -0.585834 0.263749 -0.062692 0.296626 0.037238 -0.114408 -0.819674 -0.523931 0.866303 -0.493418 -0.587538 0.154506 -0.037424 -0.659763 -0.209730 0.304907 -0.381011 -0.308214 0.231817 -0.583436 -0.291449 0.093246 -0.032486 0.231078 -0.724443 -0.121681 0.234381 0.470789 0.274209 0.599076
患 0.886348 0.732770 0.324546 0.082625 -0.110333 0.121507 -0.565619 -0.017394 0.217862 0.308748 0.575554 -0.509107 0.260010 0.208167 0.685339 0.364476 0.375839 0.449143 -0.335775 -0.041699 -0.307649 -0.083874 0.040915 -0.102220 -0.784653 0.034960 0.115774 -0.135683 -0.541380 -0.176531 -0.330324 0.089174 0.274136 -0.401068 0.109277 -0.292921 -0.444121 0.456985 -0.066696 0.248902 -0.563546 0.108745 0.806693 0.219568 -0.171509 -0.268770 0.092213 0.383279 0.169004 -0.872839 0.197816 -0.053244 -0.238215 -0.284667 0.242703 -0.566987 -0.235838 -0.194759 -0.199891 0.070275 0.365209 0.579973 0.346764 0.083519
正 0.663864 1.091084 0.531327 -0.486716 -0.171304 0.026922 -0.196961 -0.024590 -0.268105 0.525605 -0.581720 -0.649791 0.070826 0.577216 -0.130388 -0.478304 -0.487333 -0.448028 0.488508 -0.032090 0.487500 0.307571 0.145039 1.108558 0.514777 1.178255 -0.134794 -0.125157 -0.192868 0.096327 -0.249208 0.507088 -1.278385 -0.336242 -0.797537 -0.103710 0.583195 0.593199 0.488069 0.448134 -0.662848 0.446130 0.628093 0.061655 1.323501 0.583500 0.384904 -0.499110 0.035332 -0.717321 -0.386135 0.582197 -0.288027 0.231362 0.549502 -0.210013 0.641024 -0.062227 0.289548 0.436194 -0.060649 -0.336531 -0.526729 0.121934
侧 0.253340 0.535399 -0.238938 0.492458 -0.104271 -0.406716 -0.216603 -0.676093 0.300884 0.626319 -0.274505 -0.267309 0.859505 0.828155 -0.658905 0.577233 0.117847 0.259057 0.112849 -0.130081 0.024375 0.335857 0.656234 0.489942 0.173588 0.560404 -0.296999 -0.382199 -0.439651 -0.071267 -0.274499 0.522746 0.367685 0.437222 0.249310 0.187989 0.361330 0.682903 0.259405 0.254768 -0.111331 -0.039310 -0.258985 -0.112763 -0.091209 0.149910 0.084735 -1.018357 -0.058586 -0.774247 -0.279146 -0.380625 -0.092946 0.237738 0.014085 0.395779 -0.066572 -0.469953 0.114012 0.243615 0.189607 -0.444967 0.573834 -0.616545
6 0.381260 0.128749 -0.760443 -0.017035 -0.538007 0.220534 -0.245187 -0.545936 0.345973 -0.278453 -0.258492 -0.048809 0.280721 0.681697 0.644008 -0.107764 0.419332 0.171638 0.294852 -0.379824 0.498141 -0.028150 -0.051912 0.067692 -0.433990 -0.322989 0.054929 -0.268403 -0.370223 -0.472141 -0.110856 0.069103 0.348271 -0.625810 -0.178131 0.157113 -0.153248 0.228385 0.012955 0.286475 -0.889242 -0.539679 0.469909 0.840769 0.048029 0.180155 -0.516440 -0.122527 -0.317823 0.111566 0.232699 0.164776 -0.286407 0.366877 -0.001086 -0.257213 -0.123988 0.472108 0.498386 0.137600 -0.158392 0.469775 -0.201584 -0.015691
4 0.220210 0.183095 -0.972031 0.114220 -0.415648 0.264838 -0.260437 -0.607107 0.136614 -0.344101 -0.282624 -0.257053 0.006894 0.512213 0.464026 0.225316 0.185401 0.242064 0.069065 -0.122250 -0.136907 -0.257922 -0.168038 -0.003740 -0.381816 -0.087901 -0.173995 -0.378638 -0.404807 -0.357908 -0.124972 0.421550 -0.087971 -0.440142 -0.149768 0.141808 -0.245864 -0.021495 -0.005883 0.214225 -0.470716 -0.377578 0.545539 0.668751 0.290978 0.149080 -0.288491 -0.284813 -0.236531 0.160044 0.019693 -0.120433 -0.246062 0.460812 0.077612 -0.374764 -0.128869 0.247547 0.442712 0.259162 -0.087275 0.229915 -0.186160 0.081988
诊 -0.139511 0.547348 0.303466 0.698065 -0.304216 0.057933 -0.675046 -0.381259 0.413412 0.543152 -0.157657 0.634113 0.946183 0.165425 0.462363 -0.249880 0.501194 -0.488790 0.727127 0.314570 -0.063463 0.134403 -0.082903 0.052615 -0.495781 -0.042777 0.328344 -0.480743 -0.128045 0.420201 -0.255317 0.093217 -0.397042 -0.067782 0.016913 0.592462 -0.686759 -0.287170 0.318173 0.150233 -0.437053 -0.414750 -0.535501 -0.181680 0.549458 -0.071327 0.712006 0.388663 0.027075 -0.237077 0.160620 0.353461 0.081072 0.183349 0.473466 -0.453653 -0.330242 0.033544 0.490640 0.117233 0.063847 -0.042667 0.433419 1.192204
5 0.307553 0.334568 -0.871695 0.181589 -0.501323 0.399454 -0.127571 -0.565954 0.469730 -0.449125 -0.276009 0.056466 0.136923 0.491394 0.679769 0.433173 0.512147 0.314224 0.199869 -0.516418 -0.046139 -0.313487 -0.290534 0.179961 -0.031215 -0.163802 0.043285 0.218977 -0.500328 -0.378551 -0.347414 0.207275 0.247652 -0.468784 0.195989 -0.027624 -0.072034 0.187459 -0.031222 0.140570 -0.622667 -0.363888 0.354886 0.528880 0.406559 -0.197075 -0.497233 -0.293163 -0.269400 0.128596 -0.226019 0.066097 -0.178302 0.292096 -0.179654 0.001094 -0.204770 0.234251 0.593319 -0.203354 -0.127182 0.113416 -0.119788 -0.211460
肿 0.206576 0.464131 -0.974941 0.808762 0.435488 -0.700776 0.145248 -0.446787 0.718153 0.501834 -0.010715 0.245053 0.204741 0.879510 0.216034 0.488113 -0.051606 -0.045417 0.523166 0.336838 -0.071269 0.080984 0.577783 -0.322350 1.005484 0.631814 0.300946 -0.599912 0.214445 -0.091283 0.060501 0.350834 0.101539 0.746280 -0.775675 0.254301 -0.098816 0.223749 -0.105996 0.031237 0.024538 -0.651063 0.236573 -0.401857 -0.202247 0.150576 0.779420 -0.261749 0.676397 -0.445681 0.241966 -0.862077 -0.107580 -0.106885 -0.441569 -0.018566 0.645416 0.333751 0.284480 0.087514 0.043144 0.306513 0.420674 0.412189
分 -0.568404 -0.494919 -0.237298 0.755945 -0.048319 -0.515025 -0.779674 -0.800255 0.172627 -0.741925 -0.378394 -0.166054 0.440606 0.506655 0.512807 0.377724 -0.112093 0.292770 1.010790 -0.803870 -0.323824 -0.239890 0.299903 0.392269 0.526461 -0.378334 -0.143139 -0.411109 -0.030074 0.585044 -0.459886 0.035187 0.569843 0.292817 -0.440311 0.660261 -0.489666 -0.094279 1.020228 -0.725390 -1.015511 -0.807764 0.925675 0.949689 -0.162481 -0.458551 -0.487456 -0.597505 0.289802 -0.875434 0.071219 -0.384915 -0.123432 0.407731 -0.562014 -1.021068 0.661455 -0.081410 -0.293097 1.345518 -0.103672 0.483699 -0.084113 0.268816
者 0.554244 0.647575 0.255623 0.080260 0.140973 0.312961 -0.393503 0.144464 0.263753 0.341276 0.598319 -0.460167 0.312959 0.347370 0.744697 0.481506 0.417050 0.254321 -0.471331 -0.053443 -0.261577 0.023962 0.013489 0.044420 -0.774732 0.128914 0.037222 -0.125710 -0.450967 -0.110241 -0.162898 -0.012964 0.075426 -0.339607 -0.094249 -0.420519 -0.534618 0.583754 -0.003763 0.250318 -0.386117 0.082495 0.792023 0.234118 -0.054689 -0.107403 0.165257 0.387612 0.117401 -0.657948 -0.010501 0.123863 -0.357480 -0.327135 0.158736 -0.531475 -0.107857 -0.096775 -0.094337 0.075249 0.554109 0.527548 0.247788 0.267773
m -0.701652 0.516663 -0.499329 0.013838 -0.592386 0.888020 -0.090856 0.047220 1.006555 -0.290611 -0.503330 0.730304 0.300159 -0.181720 0.413641 0.224361 -0.360346 0.254973 0.389473 -1.085272 0.924684 0.058833 -0.155667 0.816199 -0.084433 0.207027 0.191815 -0.506159 -0.774941 0.157134 -0.404384 0.176813 -0.210536 -0.283727 -0.422768 -0.595662 -0.370431 0.509792 -0.177437 -0.020518 -0.959003 0.005721 0.706732 0.148099 0.047586 -0.713850 -0.394351 0.038497 0.195895 0.142652 -0.208136 -0.306779 0.234727 -0.497823 0.376415 0.157663 0.768094 0.321421 -0.219309 0.499772 -0.587431 0.034581 0.413025 -0.580892
动 0.597834 0.264532 0.132079 0.537759 0.328550 0.329651 -0.437629 -0.280243 -0.073619 0.585573 -1.033188 -0.726682 0.364520 0.548956 -0.352118 0.017825 -0.238592 -0.005509 -0.187769 -0.024512 -0.369045 0.287535 -0.017165 -1.082796 -0.138298 0.969936 -0.564222 0.167024 0.097724 0.235713 0.603364 0.944497 -0.228002 0.332562 -1.039238 -0.078449 -0.602135 -0.312692 0.088671 -0.403940 -0.970820 -0.303910 0.176180 -0.200406 0.246757 0.205983 -0.288237 -0.450634 0.919068 -0.680208 0.216844 0.302501 0.084323 -0.055901 0.534298 -0.313861 0.025214 0.057807 0.135142 -0.275618 0.199458 0.519846 -0.653706 0.223280
压 0.231785 1.095701 -0.645346 -0.561189 0.176871 0.128135 -0.177730 -0.911443 0.355513 0.339910 0.358332 0.462018 0.235046 0.125108 -0.971696 -0.282528 -0.078524 0.258709 0.535609 -0.003433 0.062483 0.433746 -0.038486 -0.072791 0.003114 0.145558 -0.377904 -0.091312 0.158405 0.359087 -0.039536 0.356298 -0.673130 0.151357 -0.470610 0.219777 -0.401484 0.350464 0.496049 0.428254 -0.205228 -0.381878 0.238291 -0.102612 -0.208742 -0.458694 -0.142168 0.728609 0.037405 -0.510984 0.406664 -0.075483 0.204966 -0.007539 0.413648 -0.075466 -0.290931 -0.006557 0.156034 -0.058902 -0.848892 -0.242427 -0.257081 -0.244522
- -0.804406 -0.156175 -0.937678 0.206764 -0.454825 0.451737 -0.152538 -0.087140 0.804565 0.146783 -0.207130 -0.327195 -0.043374 0.423561 0.100038 0.182005 -0.031897 0.128864 0.039971 0.190421 -0.340092 0.111558 0.139399 -0.334817 0.055347 -0.160692 -0.106410 0.040423 -0.279799 0.413935 -0.112191 0.438402 -0.819181 -1.030628 -0.056594 0.127269 -0.338673 0.698393 0.665104 -0.131958 -0.179389 -0.124838 0.518109 0.940140 0.371637 0.278880 -0.434109 -0.029826 -0.081697 -0.014389 0.533244 0.037235 -0.513756 0.766853 0.732387 -0.572775 -0.277346 0.226135 0.474999 0.012014 -0.321594 0.975350 0.165706 -0.142664
次 0.125099 -0.456639 -0.254851 -0.087817 -0.681477 0.171704 -0.597989 0.296842 0.721916 -0.274676 -0.372907 -0.144380 0.188726 -0.317457 -0.185725 -0.433534 -0.172303 -0.480931 0.608206 -1.167742 0.876490 0.456373 -0.117690 0.445225 -0.005756 -0.661423 -0.006859 0.098153 -0.532198 -0.116392 0.125073 0.224467 -0.172787 -0.230543 -0.616550 0.290125 -0.122527 -0.325590 0.816817 -0.157955 -1.361408 -0.847711 0.610959 1.115437 -0.578277 -0.192756 -0.489550 -0.421949 -0.506988 -0.725636 0.264835 0.240597 -0.361478 0.823142 0.144272 -0.770369 0.280996 0.065251 -0.632839 0.905553 0.157821 -0.117602 0.027819 0.705513
肺 -0.083669 0.160023 -0.072193 0.532571 -1.041257 0.204818 -0.551716 -0.279938 0.180735 0.472003 -0.367848 -0.786867 0.971702 0.829002 0.421441 -0.409222 0.376633 -0.787826 0.863241 0.263932 -0.135427 -0.392881 0.425284 -0.099058 -0.089050 0.115969 0.332510 0.187615 -0.723178 0.838373 -0.852108 0.210941 0.112472 0.187761 0.588607 0.663487 0.279216 -0.371537 -0.537834 -0.230944 -1.338576 -0.082266 -0.561931 -0.243774 0.127895 -0.202292 0.357099 -0.102267 0.681269 -0.243282 -1.002652 -0.498314 0.095936 -0.384193 -0.280357 0.033972 -0.029641 -0.323091 -0.450270 -0.090855 -1.125103 0.830834 0.010669 -0.267289
头 0.400036 0.556873 0.500088 -0.774900 -0.016598 0.292821 0.073406 -0.065938 0.362954 0.207175 -0.284564 -0.109274 0.105685 1.162122 -0.015559 -0.027843 0.410663 0.148506 -0.261732 0.059926 0.010392 0.167732 -0.478134 0.117621 -0.282596 -0.312323 0.551538 -0.230571 -0.008985 -0.722109 -0.214331 0.657383 -0.125717 0.341920 -0.413517 0.466391 -0.107453 0.374643 0.603961 0.024021 -0.050056 0.031121 1.212111 -1.077022 -0.377526 -0.186527 -0.142966 -0.438035 -0.215343 0.278543 -0.322439 -0.105199 -0.561380 -0.047961 -0.065726 0.159849 -0.309094 -0.025208 -0.070553 0.272414 0.135797 0.124137 0.593826 -0.389116
入 0.722878 0.785035 -0.070603 -0.662292 0.667718 1.111996 -0.411782 -0.168708 0.760653 0.443227 0.017432 0.172035 0.689099 0.018864 0.522751 -0.097307 -0.595386 -0.093771 -0.045417 -0.040866 0.167692 0.508469 -0.247395 -0.066089 -0.276835 -0.486109 0.979296 -0.341361 0.358547 0.194955 -0.226961 -0.091346 0.379441 -1.095313 0.332927 0.019710 -0.263948 0.315498 0.023198 0.229165 -1.176958 -0.316614 0.133431 0.514782 0.095851 0.753574 -0.184445 -0.173783 0.264032 -0.586421 0.014808 0.680596 0.504775 0.678033 -0.539895 -0.182983 0.256870 -0.569587 -0.133208 0.604407 -0.207607 0.323807 0.976748 -0.842725
见 0.338475 0.198612 -0.267741 -0.110440 -0.534816 -0.811804 0.127797 -0.184237 0.278945 0.166377 0.011501 0.129146 0.522314 0.404852 0.130699 0.452895 -0.439494 -0.447565 0.749534 -0.499629 -0.161067 -0.204382 0.560706 -0.074227 0.348556 0.777302 0.720648 0.027724 0.113263 0.391620 -0.149454 -0.098633 -0.662377 0.237597 -0.924233 0.271355 -0.415361 0.423155 -0.421674 -0.318402 -1.000427 -0.283261 0.315973 0.127723 0.441546 -0.549007 -0.187848 -0.193478 0.662941 0.220916 -0.998898 -0.458099 0.217309 -0.099762 0.088921 0.017311 -0.383015 -0.366104 -0.374886 -0.697931 1.011755 -0.149156 0.975081 0.218078
可 0.730088 -0.063480 -0.700832 0.473546 -0.080635 0.158166 -0.197281 -0.214566 0.121024 -0.206638 -0.248568 -0.176355 0.201843 0.497852 0.121148 0.403262 0.028192 -0.402789 0.437394 -0.323583 0.081398 0.036916 -0.431127 0.139855 0.251331 0.272479 0.257511 -0.139680 -0.229470 0.086987 -0.100843 0.449103 -0.267849 0.104126 -0.789879 -0.180614 0.150617 0.302010 -0.208047 0.291618 -0.456700 0.261036 -0.014133 -0.048886 0.047464 -0.098008 0.548731 -0.235061 -0.221152 -0.217905 -0.932499 -0.271432 -0.080090 -0.133779 0.259685 0.585114 0.323652 -0.329103 0.001751 -0.548071 0.360045 0.194566 0.383062 1.028931
大 -0.575430 0.341721 -0.859574 0.194135 0.126637 -0.469463 -0.042825 -0.549244 0.987347 -0.037424 -0.114402 -1.021492 0.984035 0.728182 -0.263209 -0.370500 -0.163563 0.071128 0.313460 0.314663 0.608087 0.465463 0.028299 0.469133 -0.012006 0.756692 0.030678 -0.683273 0.306403 -0.414851 0.699224 0.799219 -0.180276 -0.017035 -0.760059 -0.080741 -0.223861 -0.323446 -0.616787 -0.420977 -0.456987 0.562321 0.015885 -0.346528 0.326978 -0.459378 0.141310 0.570506 0.177747 0.073404 -0.054948 0.353827 0.579916 0.759448 -0.816126 0.315355 1.084173 0.054059 -0.202197 0.774791 0.216351 0.107942 0.159735 0.382312
8 0.063198 0.237969 -0.682677 0.136929 -0.589955 0.488550 -0.165020 -0.571411 0.172641 -0.188661 -0.475445 0.170644 0.364093 0.711886 0.595162 -0.272991 0.130964 0.447946 0.383956 -0.491818 0.711844 -0.072377 0.050833 0.366648 -0.335999 -0.509331 -0.363664 -0.683843 -0.395326 -0.462122 -0.118447 -0.146787 0.644773 -0.547217 -0.280593 0.401843 -0.122970 0.229853 0.005418 0.391264 -1.008697 -0.570643 0.550915 0.660388 -0.093905 0.177604 -0.230782 0.006369 0.013280 0.025087 0.220393 -0.278520 -0.263144 0.540038 -0.154015 -0.291341 0.234257 0.627512 0.192168 0.092818 -0.357346 0.170085 -0.225984 0.080657
后 0.373988 0.589539 -0.191713 0.090633 -0.095710 0.632724 0.316352 0.401046 0.759232 0.907871 0.086779 0.147947 0.095895 0.240294 0.563469 0.235475 0.213352 0.027217 0.425238 0.059385 -0.073528 0.885456 -0.545138 -0.347239 -0.021075 0.046577 0.400050 0.203952 -0.093472 0.219682 -0.073168 0.296906 0.340976 0.031816 -0.365033 -0.487963 -0.461825 -0.069160 -0.064892 -0.157278 -0.182973 0.207091 0.314910 -0.091847 -0.469570 -0.218782 0.549978 -0.279277 0.116122 -0.002692 0.467822 -0.195929 0.092777 0.244296 0.250632 -0.106126 -0.352662 -0.285096 -0.035644 -0.232079 0.460154 0.138293 0.857768 -0.114249
发 0.984834 0.368735 0.122758 0.960353 -0.128985 0.298481 -0.336286 0.547503 0.221010 0.138416 -0.031324 -0.180273 0.750319 0.017251 0.026211 -0.317599 0.807019 -0.160534 -0.374565 0.040077 0.274092 0.182370 0.254558 -0.134904 -0.078479 0.132998 -0.720292 -0.811611 0.323619 -0.234845 -0.236014 0.737298 -0.085591 0.420348 -0.096237 0.141938 0.031337 -0.252958 0.646779 0.214094 -0.581569 -0.395923 0.542564 -0.316078 -0.380954 -0.189753 -0.007682 0.440769 -0.070956 -0.465502 -0.098353 0.472322 -0.205004 -0.203119 -0.193150 0.425193 0.312088 0.444950 -0.019193 -0.439016 -0.067508 0.570566 0.651094 0.999580
神 -0.346721 0.144857 -0.753012 0.698803 0.279364 -0.452777 -0.025332 1.027455 -0.070843 0.218145 -0.432476 -0.004863 0.581945 0.121012 -0.043875 0.219281 0.495614 0.059149 -0.294749 -0.396652 -0.611205 0.886288 -0.604620 -0.468950 -0.735621 -0.306308 0.600955 -0.679037 -0.066310 -0.599094 -0.784319 0.314197 -0.824741 -0.638218 -0.406165 -0.633310 0.578348 0.313720 -0.183605 0.090112 -1.270419 -0.142608 1.272032 -0.157160 0.455610 0.031830 0.158708 0.477386 0.296694 0.067250 -1.350976 -0.371280 -0.475628 -0.233910 -0.275792 -0.515786 0.175529 -1.116766 0.242700 1.150199 -0.360789 0.081252 0.361804 0.316683
肢 0.924922 -0.290185 -0.708902 0.211880 -0.625403 0.218498 0.099347 -0.216673 0.315106 -0.005758 -0.730410 -0.306828 -0.457482 0.580813 -0.449586 -0.110257 0.628097 0.241784 -0.020553 0.101196 -1.015897 0.381087 -0.253115 0.078272 0.207660 0.291960 -0.221724 0.333923 -0.209600 0.272941 -0.063121 1.109591 -0.090461 0.548623 -0.444715 0.559435 0.019456 0.578776 -0.202228 -0.731984 -0.700594 -0.317917 0.458675 -0.088147 0.184602 0.668224 0.796261 -0.262764 0.827603 -0.079591 -0.040625 0.296923 -0.572061 -0.642319 0.371896 -0.040852 0.452370 -0.289418 0.276064 0.641238 -0.361608 0.630089 -0.227291 -0.725196
9 -0.136424 0.489530 -1.008763 0.544225 -0.635305 0.579826 -0.337337 -0.739067 0.090304 0.008823 -0.736446 0.236117 0.356616 0.715649 0.738704 -0.024600 0.089627 0.409742 0.493362 -0.280596 1.131032 -0.207833 -0.369057 0.325718 -0.144289 -0.702225 -0.376429 -0.477423 -0.535919 -0.567347 -0.039050 -0.232593 0.880202 -1.120257 -0.335233 0.296628 -0.112635 0.478545 -0.037163 0.440125 -0.769991 -0.203807 0.686988 0.368427 0.063913 0.453676 -0.500930 0.067698 0.207022 -0.118997 -0.093851 -0.278924 -0.077010 0.352845 -0.138950 -0.360425 0.299817 0.512542 0.152233 -0.121880 -0.135608 -0.022273 -0.218531 0.222875
下 0.200157 0.496127 -0.328838 0.376008 -0.295265 -0.062528 -0.062609 -0.227806 0.392698 0.003279 0.096336 0.548166 0.052540 0.120302 -0.703512 0.197053 0.507758 -0.370988 -0.154667 -0.191909 -0.214338 0.103772 -0.091633 0.422478 0.523266 0.278777 -0.557079 -0.022973 0.339117 -0.008058 0.286418 0.574143 -0.013769 0.286834 -0.438903 0.388669 -0.043673 0.128977 -0.195414 -0.531444 -0.501347 -0.563484 -0.186558 -0.001852 -0.109553 0.231254 0.932433 -0.383627 0.200283 -0.638792 -0.299930 -0.046363 0.157965 -0.218329 0.378072 -0.259968 -0.193148 -0.323898 0.181655 0.404298 -0.306547 1.018017 0.403513 -0.520078
右 0.061806 -0.020693 0.102169 0.016190 -0.280923 -0.173097 0.227538 -0.586925 0.585292 0.668171 0.164693 -0.188722 0.289369 0.683848 -0.246269 0.395174 -0.223056 0.239100 0.038873 -0.245280 -0.275685 0.119071 -0.067510 0.176835 0.216456 0.520922 -0.196027 -0.051403 -0.343847 -0.129546 -0.150279 0.490774 -0.067865 0.445303 0.150833 0.215980 -0.261668 0.222820 -0.255003 -0.027210 -0.302384 -0.457225 0.028312 0.241082 -0.229985 0.132291 0.475049 -0.846979 0.064788 -0.643727 -0.557200 0.087986 -0.439074 0.373061 -0.024645 0.075906 -0.568986 0.243082 0.243649 -0.035830 -0.150109 0.091708 0.284008 0.073787
出 0.420670 0.352533 -0.622031 0.309420 0.130931 0.550750 -0.664819 0.251862 -0.126866 0.502189 0.053724 0.297796 0.608126 -0.014799 -0.227690 0.421238 0.570577 0.945802 0.640378 -0.442730 -0.221389 0.058339 -0.313786 0.401273 -0.325229 0.346645 0.026859 -0.104333 0.698442 0.456356 -0.637231 0.263826 0.185153 0.169896 0.248117 0.109718 -0.429188 0.538669 -0.399869 -0.647036 0.127235 0.457045 0.592960 -0.330932 -0.462938 0.543675 0.202691 -0.000082 0.897224 -0.472707 0.582210 0.251732 1.036836 0.320801 -0.012561 -0.613121 0.245267 -0.428425 0.698870 -0.591094 0.599557 0.652887 0.409474 0.494353
清 -0.841545 0.172068 0.432981 1.301137 -0.345124 -0.032532 0.021195 -0.424986 -0.214705 0.480640 -0.663647 -0.727156 0.927671 0.054247 0.168222 0.240088 0.253969 -0.853186 0.046993 -0.129759 -0.275019 0.701208 0.036926 -0.052936 0.137150 -0.466249 0.002925 0.158837 -0.042092 0.279983 0.213151 0.619556 0.045049 -0.762556 -0.498546 -0.513249 0.204539 -0.577417 -0.415512 0.363877 -1.723662 -0.872055 0.473489 -1.067238 -0.023778 0.223720 0.485174 1.213570 0.003280 -0.739303 -1.188407 -0.374034 -0.205542 -0.252803 -0.099010 -0.004180 0.808871 -0.533998 0.302554 0.008351 -1.017398 0.540595 0.314717 -0.064773
于 0.551946 0.894062 -0.399057 -0.757566 -0.261020 -0.386358 -0.084578 0.180514 0.744244 0.346831 -0.097945 -0.836690 0.612385 0.074701 0.229870 -0.107239 -0.276105 -0.288179 -0.341708 -0.223381 0.168897 0.356924 0.449861 0.119070 0.003093 -1.129800 -0.789738 0.284741 -0.079975 0.658432 -0.204192 0.620177 0.236510 -1.077334 -0.380477 0.000637 -0.424468 -0.133150 -0.173284 -0.934241 -0.073720 -0.427196 0.585844 0.198657 0.022382 0.291920 0.801779 0.501426 -0.240395 -0.578042 0.123126 0.644207 -0.057066 -0.077886 -0.454312 0.035290 -0.267325 0.284112 1.143828 -0.370453 0.139910 0.507073 0.258750 -0.006449
反 0.574405 -0.063163 -0.605953 -1.155912 -0.386345 0.343851 -0.391332 0.265650 -0.954502 0.054926 -0.319582 0.550812 1.388245 1.327227 -0.823650 -0.843253 0.461245 -0.412609 -0.010794 0.083824 0.405667 0.714745 -0.358837 -0.663026 0.495753 0.502195 0.627591 -0.362205 -0.633513 0.307236 -0.633395 0.912641 0.296157 0.175871 -0.431982 0.675625 0.929359 1.218902 -0.390828 -0.169464 -0.217347 0.885970 0.813341 0.836652 0.131384 -0.975734 0.348094 -0.297642 0.214325 -0.836294 0.499150 -0.039117 -0.003747 -0.444008 -0.198390 -1.224492 0.878452 1.160303 -0.265233 -0.288051 -0.079346 -0.576559 0.779881 -0.159752
7 0.084187 0.137206 -0.916555 0.264527 -0.542069 0.130248 -0.275269 -0.515263 0.120517 -0.140244 -0.349176 0.078916 0.339328 0.621440 0.668261 0.042366 0.275246 0.343237 0.263774 -0.361093 0.616047 -0.149101 0.017841 0.224896 -0.304614 -0.471112 -0.180781 -0.328762 -0.502993 -0.502097 -0.002010 0.032713 0.406774 -0.592980 -0.301879 0.301362 -0.253754 0.430678 0.047300 0.301215 -0.724236 -0.329399 0.403534 0.680707 0.068232 0.291503 -0.461479 0.095637 -0.142984 -0.050042 0.040945 -0.088684 -0.131188 0.372305 -0.252117 -0.154852 -0.151061 0.553332 0.411660 -0.072689 -0.084783 0.185669 -0.124151 0.072924
治 0.175084 0.048985 -0.293655 0.294487 -0.066080 0.291152 0.181388 -0.362795 0.512128 0.842349 0.262080 0.259327 0.497396 0.128237 0.603386 0.420262 1.075817 -0.344114 -0.236599 0.131433 -0.512020 -0.070032 -0.012432 0.037347 -0.320326 -0.922233 0.418309 -0.077831 -0.678886 -0.225022 -0.257110 0.154832 -0.215755 -0.602954 -1.050801 0.418118 0.176078 0.533801 0.067145 -0.409758 0.046457 -0.005443 -0.365606 -0.521057 -0.177207 -0.001549 -0.020395 -0.012458 0.344414 -1.057712 0.427015 0.190757 0.226310 0.010137 0.000979 -1.027273 0.891487 -0.296409 0.077347 0.296441 0.325549 -0.393406 0.332159 0.261160
口 0.067530 1.086529 0.254503 0.702644 -0.174491 0.485409 0.470481 0.771771 0.594848 0.143092 0.419453 0.416788 -0.232930 -0.030599 -0.100273 0.587672 0.028843 0.005168 0.739332 -0.188856 -0.163928 0.197336 0.236983 0.527764 0.131315 -0.273497 0.187551 -0.366720 -0.446478 -0.104329 -0.184557 0.467718 0.083848 0.093692 -0.777009 -0.119561 0.562236 -0.013830 0.192800 -0.461789 -0.633509 0.409555 0.458059 -0.622946 -0.387778 -0.388302 -0.486895 -0.127770 0.289432 -0.322830 -0.136236 0.190495 -0.283808 0.278100 -0.031777 -0.587229 -0.148970 -0.030553 -0.044700 -0.393806 -0.647246 -0.088684 -0.201642 -0.201635
症 0.565650 0.067832 -0.250170 -0.559331 -0.376760 0.172530 -0.105291 0.172106 1.078276 1.602485 -0.311890 0.388462 0.669727 -0.173772 0.105835 0.776825 0.693179 -0.400934 -0.146644 0.227461 -0.957804 -0.026680 0.046164 -0.147562 -0.638999 0.416846 0.402484 -0.258015 0.209363 -0.534739 -0.286122 0.065647 0.110034 -0.394017 -0.055303 -0.145779 0.425224 0.240798 0.535292 -0.659552 -0.189430 -0.480137 0.518989 0.504472 0.395995 -0.243299 -0.014998 0.216983 0.485374 -1.101351 0.848346 0.716253 0.147175 -0.135452 -0.132290 -0.225983 -0.216218 -0.143137 -0.671122 -0.082816 0.310830 0.308017 0.422915 0.257400
检 0.153330 -0.080092 0.071302 1.010694 0.187039 -0.095531 0.056088 -0.398996 0.580874 0.017186 -0.776389 0.147701 0.774983 0.662311 0.549558 0.391431 -0.120713 -0.228728 0.199772 0.135555 0.489849 0.401645 -0.277583 0.318765 0.009552 -0.370076 0.802179 0.017369 0.068068 0.406739 -0.425461 0.075407 -0.587116 -0.473324 0.017275 -0.133946 -0.464888 0.569512 -0.052747 0.474893 -0.210938 -0.283006 0.370338 -0.317819 0.062643 0.005852 0.917177 -0.190095 -0.374571 -0.124730 0.170521 -0.063457 0.403186 0.014532 0.944829 -1.075263 -0.808934 -0.154216 -0.073816 0.459721 0.138414 0.069869 0.469449 -0.224832
对 0.224606 1.231886 -0.533689 -0.009905 -0.030623 -0.325520 0.947469 -0.033193 0.287452 0.258158 -0.135662 -0.162546 0.658663 0.639645 0.973629 0.228377 -0.343540 -1.137157 -0.799679 -0.223681 0.534620 0.372280 0.799807 -0.422899 0.218157 -0.226102 -0.861477 0.756178 0.662152 0.560777 -0.905323 0.272682 0.114368 0.532133 0.069943 0.191012 -0.233509 1.399455 0.191372 0.020413 -0.606864 0.226887 0.138176 -1.480696 0.144283 -0.200315 -0.455521 -0.247286 0.141375 -1.225072 0.075497 0.104083 -0.741382 0.640567 -0.029670 -0.582110 0.996974 1.118231 0.219189 0.342986 -1.053404 -0.405741 0.198028 0.615007
左 -0.200140 0.079604 -0.037108 -0.045777 -0.063685 0.060230 0.174641 -0.421094 0.535724 0.773337 0.191055 -0.152483 0.130706 0.654398 -0.300210 0.268815 -0.205997 0.497404 -0.206773 -0.337369 -0.263345 0.285779 0.026324 0.335704 0.148138 0.354512 -0.148459 -0.099245 -0.470030 -0.312769 -0.223390 0.449824 -0.161974 0.382772 -0.072555 0.086088 -0.272021 0.192281 -0.217052 0.061859 -0.288118 -0.379148 0.016501 0.026639 -0.141453 0.036389 0.522028 -0.806344 0.093067 -0.362867 -0.566460 -0.072699 -0.392674 0.423279 -0.129886 0.214901 -0.721400 0.001253 0.084890 -0.028081 -0.025233 -0.021711 0.262179 0.120223
不 0.007750 -0.420618 -0.617064 -0.477185 -0.264622 0.002389 -0.115441 0.011599 0.075103 0.331464 0.136545 -0.474579 0.070237 0.190430 -0.347118 0.607098 -0.072547 -0.397096 0.359088 -0.237646 0.320790 0.734744 0.130102 0.459757 -0.687339 -0.027252 -0.370773 -0.313439 -0.271522 0.411408 0.013072 0.260223 -0.288151 0.517390 -0.436554 0.132419 0.126975 0.130058 -0.186635 0.356815 -0.934533 0.193604 0.153606 0.202573 -0.324423 0.042360 0.905297 0.385212 0.589300 -0.362712 0.497343 0.305434 -0.035261 0.245663 0.629535 0.035759 -0.369091 -0.129842 -0.011365 -0.611221 -0.100556 -0.057626 0.171569 0.697886
膜 -1.390046 0.906932 -0.583828 0.568248 0.762388 -0.615058 0.447058 -0.310431 0.144974 0.786359 0.476752 1.495880 0.714895 -0.550472 -0.244342 -0.045804 0.840321 -0.409039 1.058218 -0.789809 0.384571 0.135352 -0.089499 0.820043 -0.218421 0.279396 0.370372 -0.473049 0.292408 0.290747 -0.486311 1.149691 0.188291 0.037234 -0.244988 0.695355 0.073959 -0.450968 -0.130278 -0.176687 -0.955697 0.061155 0.997230 -0.159610 0.009886 0.719698 1.041817 0.357723 0.246638 -0.018898 -0.303299 -0.599332 -0.801241 1.036542 -0.217488 -0.753780 0.384226 1.063577 -1.312426 -0.179931 0.416721 0.217114 -0.764757 -0.290510
异 0.494004 -0.309429 -0.065010 -0.636144 0.059107 0.019431 -0.857101 -0.391262 0.161512 0.113435 -0.081814 0.045526 0.724135 0.718408 0.226303 0.413130 -0.089768 -0.293148 0.914121 0.319596 0.227456 0.299485 1.506457 0.389959 1.225842 0.351060 0.427000 -0.089213 0.953399 0.547768 -0.310911 0.399477 -1.127953 -0.300277 -1.298542 0.346115 0.380964 0.767012 -0.786681 -0.228570 -0.854184 -0.229798 0.782875 -0.504847 0.520385 0.617403 0.436222 -0.399911 -0.352372 0.426551 -0.290563 0.181492 0.426609 0.018234 0.593807 -0.416298 -0.788460 0.061597 -0.219156 -0.057486 0.080901 -0.174517 0.674576 -0.021044
疗 0.169731 -0.093901 -0.331544 0.134627 -0.058796 0.207868 0.048593 -0.405310 0.618542 0.770231 0.304348 0.284710 0.478097 0.088948 0.538558 0.420537 1.024358 -0.365452 -0.243034 -0.026185 -0.434808 -0.025711 -0.141339 0.160923 -0.256814 -0.775255 0.414053 -0.014969 -0.553402 -0.117073 -0.276865 0.055403 -0.227158 -0.537313 -1.096650 0.274055 0.098696 0.694684 0.081494 -0.226363 0.029943 0.102409 -0.415544 -0.518580 -0.236049 0.116152 -0.009191 0.077927 0.411031 -1.041130 0.339781 0.386236 0.287082 0.044826 0.005067 -1.017411 0.800223 -0.189967 0.115711 0.272183 0.245129 -0.402591 0.375071 0.334105
中 0.065492 0.215634 -1.174491 -0.452781 -0.324631 0.470559 1.101505 -1.252375 0.197294 -0.317003 -0.258375 -0.206482 0.010576 0.088733 0.548573 -0.182326 0.381850 -0.278872 -0.159482 0.417146 0.361968 0.513711 0.975161 0.692778 0.307111 0.111869 -0.492497 0.335138 -0.157948 -0.238551 0.097795 -0.015431 0.471239 -0.101843 -0.629806 0.149074 -0.298218 -0.226607 0.394974 0.628998 -0.946316 0.448266 0.162210 -0.408839 0.293736 0.402114 -0.420499 -0.189735 -0.725921 -0.989223 -0.104194 0.354958 0.337905 -0.399048 0.437376 0.187253 -0.597994 -0.418459 0.560225 0.483499 -0.396349 0.605249 0.684651 0.976128
区 -0.105019 -0.193661 -0.414789 0.414904 -0.538131 -0.125115 -0.309421 -1.284255 -0.094772 0.952975 1.341552 0.419142 0.660172 -0.198250 -0.639995 -1.432827 0.682512 -0.018644 0.420420 0.395303 0.070922 0.947008 0.373648 1.548041 1.201070 -0.249669 -0.211320 -0.001240 -0.277930 0.210187 -0.333183 0.560077 0.470342 0.060750 -0.026841 0.486513 -1.060537 -0.323338 -0.086894 -0.740192 -1.992529 0.247489 1.152749 -0.416610 -0.019143 0.736488 -0.127956 0.526336 0.123430 -0.315912 0.723615 -0.599884 0.170052 -0.201126 0.560010 0.314031 -0.575905 0.531351 0.458499 0.034053 0.828536 0.008415 -0.445761 -0.172105
触 -0.116942 0.075343 -0.923822 -0.121948 -0.088844 -0.737531 -0.063089 -0.896740 0.946085 0.319794 0.102267 0.037605 0.924447 0.739617 -0.602253 0.388995 -0.427010 -0.699131 -0.007336 0.486073 -0.147132 0.685068 1.060722 0.242273 0.146302 2.089156 0.343434 -0.224355 -1.022599 0.089346 0.039864 -0.222368 -0.487934 0.666668 -0.631561 1.132846 -0.393559 0.113578 -0.438132 -0.948875 -0.454276 -0.837034 0.565315 -0.438217 0.322643 -0.221766 -0.028746 -0.008721 0.479044 -0.587476 -0.099940 -0.548719 -0.643658 0.332692 -0.587178 0.121345 0.599592 -0.154168 0.060090 0.171518 0.554726 0.533442 -0.311274 -0.462481
肌 0.274755 -0.150213 -0.458181 0.093472 -0.447523 0.942994 -0.190455 -0.290169 -0.148484 0.330938 -0.231105 -0.664377 -0.194567 0.273850 -0.507211 -0.406640 0.585419 0.273168 -0.175047 -0.453835 0.201492 0.630848 0.117839 -0.257415 0.187899 1.476188 0.334139 -0.341407 0.220230 -0.230733 -0.147388 1.215862 -0.094359 -0.591702 -0.398870 1.460517 -0.058642 0.897593 -0.032529 -0.663044 -0.601126 -0.305695 0.565080 0.077192 0.345567 -1.057757 0.227276 -0.103781 1.151537 -0.614391 0.087967 -0.278930 0.219200 -0.906260 -0.127951 -0.289526 -0.016745 0.138055 0.477033 0.608036 0.299147 -0.240845 0.027229 -0.568433
g -0.473314 0.371590 -1.182982 0.058486 -0.503069 0.846587 0.158318 0.283969 0.692452 0.098691 -1.063922 0.439279 0.206742 0.072422 0.207734 0.781299 -0.885512 -0.565226 1.047711 -0.562530 0.840657 -0.980660 0.559778 0.250846 -0.063079 0.667604 0.242219 -0.265299 -0.295004 0.147802 -0.329083 0.894709 -0.141244 -0.470809 -0.052036 -0.384233 -0.043611 0.302619 0.046223 0.299414 -1.389875 -0.427658 0.294270 -0.529887 -0.236062 -0.950359 -0.748742 0.694791 0.414609 0.174299 0.339635 -0.624759 -0.216548 -0.473085 0.945261 -0.783421 0.378018 -0.371032 0.126532 0.510975 -0.698305 -0.024317 0.348493 -0.058074
物 0.273535 0.282108 -0.305714 -0.273050 -0.327890 0.066948 -0.106309 -0.688468 0.302980 -0.536336 -0.086309 0.387298 0.090282 0.003559 0.489654 0.150063 0.278813 -0.367613 0.440036 0.566948 -0.936552 0.642346 -0.046526 0.732786 -0.717021 -0.352266 -0.033279 0.402270 -0.589191 -0.230303 -0.838670 0.572215 -0.374156 0.698515 -0.660606 0.082205 0.174607 0.502190 -0.264280 -0.785795 -0.151128 0.452985 0.326010 0.231816 -0.377099 -0.309849 -0.165274 0.475656 0.341231 -0.634493 0.082867 0.871089 -0.335601 -0.634051 0.207123 -0.680726 0.356586 0.126040 -0.957047 0.618358 0.325113 -0.504769 0.563635 0.456233
吸 -0.385754 0.088115 -0.852039 0.067796 -0.313136 0.481859 -1.143600 0.182418 0.567064 0.943130 -1.046821 0.632255 0.993838 0.471411 -0.062731 0.098310 -0.972973 0.144485 0.406744 -0.074161 -0.071374 0.203942 0.107687 -1.177970 0.379519 -0.764335 -0.313038 -0.381643 -0.544731 -0.429933 -1.086443 0.176513 -0.292641 -0.024414 0.080912 0.840527 0.578170 -0.479101 0.789583 -0.462192 -1.186437 1.380690 0.266789 -0.877577 0.077673 -0.177591 0.565789 0.623698 0.035938 -0.501568 -0.505945 -1.163471 0.009840 0.454413 -0.411975 0.001157 -0.073776 -1.099318 -0.248655 0.091673 -0.900491 0.511912 -0.574862 0.537358
闻 -0.223421 0.847246 -0.863059 0.410069 0.480530 -0.391886 -0.594932 -0.981624 0.138581 0.495401 -0.242216 0.542343 1.146264 0.893083 0.569658 -0.368012 -0.162203 -0.713875 0.379128 0.152262 -0.550348 0.634114 0.899429 0.458259 -0.477099 0.305587 0.210438 0.376820 -0.242228 0.053159 0.637170 -0.210660 -0.446708 -0.051114 -0.450581 1.830305 0.352094 -1.034641 0.520378 -0.465305 -1.194668 0.254835 0.365314 0.517936 1.321307 -0.235403 0.299351 0.566844 -0.044176 -1.296846 -1.036145 -0.854970 -0.178490 -0.548964 -0.140748 -0.933314 0.280340 -0.272367 -0.559685 -1.558318 0.250226 0.476300 -0.501470 0.530011
T -0.287180 -0.151370 -0.421939 0.226704 0.611758 0.302177 0.493665 -1.136341 0.418161 -0.413885 -0.352670 -1.082824 1.670855 1.246050 -0.346961 0.719178 0.453649 0.402891 0.507163 0.193025 0.815310 -0.248291 1.171209 -0.672097 0.455431 -0.159621 1.253250 0.272387 -0.345045 0.578552 -1.177280 0.080049 -0.892961 -0.685266 -0.104692 -0.497971 -0.105664 0.448374 1.311384 -0.039144 -1.053316 0.320881 0.182248 0.555351 -0.282775 -0.723121 0.562230 -0.276560 0.160040 1.185866 -0.186731 -0.095202 0.127833 -0.565538 0.218920 -0.410861 -0.586175 0.810788 0.063438 -0.239003 -0.439567 0.471055 0.346100 -0.213336
明 -0.019366 0.265329 0.136992 0.304131 -0.432558 0.239777 -0.399838 0.368128 0.104952 0.184553 0.163636 -0.107901 0.672127 1.349990 0.226265 0.147489 -0.006588 -0.215265 0.359366 0.048367 -0.348649 0.326371 0.194235 0.341035 0.208434 -0.117444 0.320797 -0.027042 0.065474 0.495359 0.222902 0.281735 0.058492 0.324099 -0.887762 0.321189 -0.728303 0.636553 -0.133382 -0.039151 0.070720 -0.181952 0.581779 -0.432833 -0.193734 0.631223 0.181064 0.314592 -0.074637 -0.489515 -0.569169 0.285913 0.455176 0.063520 -0.204252 0.295669 -0.654961 -0.163623 -0.143406 -0.064714 0.062027 0.213614 -0.062806 -0.194700
呼 -0.034618 0.268098 -1.142410 0.101734 -0.520474 0.293205 -0.912614 0.397876 0.423639 1.179792 -0.721566 0.218587 0.730968 -0.179349 0.423825 -0.528573 -1.006690 -0.058122 0.362670 -0.100832 0.086810 0.293413 0.395196 -0.384808 0.877806 -0.817602 -0.312909 -0.286149 -0.092202 -0.687992 -0.668110 0.254095 0.052877 -0.186743 0.117128 1.057684 -0.205553 -0.296482 0.493752 -0.370030 -2.117808 0.978861 0.300963 -1.379723 -0.278493 -0.177658 0.451875 0.009896 0.183342 0.091354 -0.361542 -1.053398 0.195467 0.011094 -0.579445 0.385776 0.697745 -0.705945 -0.337633 -0.159680 -0.583088 0.724164 0.078227 0.253005
射 -1.251047 -0.107834 0.298726 -0.075214 -0.712547 1.487992 0.084689 0.566064 0.150905 1.341169 -0.794857 0.253869 0.980486 0.533525 -0.376988 0.309699 1.486941 -0.262359 -0.126428 -0.197457 -0.166661 0.963842 -0.432330 0.815000 1.295295 0.531479 -0.272655 0.684543 0.060923 -0.197935 -0.866423 -0.241611 0.207661 0.231422 -0.751049 -0.162328 -0.114339 0.588947 0.456446 -0.252283 -0.366593 0.199897 0.132564 0.671129 0.077432 -1.607784 -0.538533 0.043196 0.099305 -1.445501 -0.054979 -0.393093 -1.112071 -0.221921 -0.008096 -0.486202 0.616556 0.941082 0.452283 0.352709 -0.001795 -0.798994 0.142347 -0.443916
尿 0.616723 0.131849 -0.219553 -0.224303 -0.687560 -0.161743 0.082972 0.064628 0.583556 -0.022745 0.142007 -0.033050 -0.576688 0.666814 0.336524 -1.217389 0.488328 1.105113 -0.057268 -0.248730 0.487760 0.533965 0.573653 0.132208 -0.124971 -0.524204 0.107874 -0.263724 -0.078298 -0.747834 -0.206700 0.129893 -0.994264 0.227057 -0.142204 -0.128105 0.060070 0.052457 0.116792 -0.667499 -0.080931 0.161463 0.233461 -0.579950 0.625044 0.077664 0.333282 0.723309 0.904498 -0.794548 -0.025092 -0.451603 -0.073744 -0.189314 0.223690 -1.481587 -0.480212 0.205082 -0.298133 -0.711867 -0.344974 0.323985 0.855853 0.176695
咳 0.695135 0.526177 -0.392048 0.807910 0.030509 0.371751 -0.279771 0.166280 -0.160696 1.151760 -0.426269 0.423778 -0.600529 0.211322 -0.715061 0.827864 0.392294 -0.384106 -0.668978 0.230125 0.672455 -0.118479 -0.016077 0.804080 -0.744154 -0.173140 0.748815 0.295537 0.289612 -0.091301 -0.623945 0.528360 0.692551 -0.127500 0.627884 0.573618 -0.328100 0.313547 0.520797 -0.461989 -0.764330 0.045040 1.380097 -0.152204 0.038957 -0.041564 0.028467 0.476461 -0.488601 -0.524083 -0.299079 0.700049 -0.271175 0.837139 -0.710611 -0.146976 0.147745 -0.781522 -0.491847 0.063828 -0.280304 0.994204 1.056740 0.449178
年 0.556695 0.130786 -0.056857 0.263490 -0.467251 0.301649 0.247682 0.440667 0.123068 0.605441 0.038866 0.442479 0.249703 -0.052961 0.189282 0.405613 -0.037677 0.073155 0.281133 -0.255775 0.439578 -0.235922 0.136236 -0.125674 0.044728 -0.482467 -0.644905 0.011707 -0.448921 0.440927 0.098533 0.000147 -0.032617 -0.528841 0.015013 -0.141850 -1.250276 0.238918 0.579449 -0.478521 -0.454398 -0.111543 0.982520 0.519924 0.182729 -0.080141 0.487603 1.009865 0.795193 -0.834485 0.328865 0.181503 -0.118702 -0.451557 -0.059809 -0.007538 -0.352810 0.418679 0.679861 -0.110174 0.556119 0.189388 0.318296 0.079687
胸 -0.299886 0.270593 0.508484 0.055373 -0.401905 -0.637896 -0.351375 -0.233115 0.309738 0.397321 -0.681840 -0.231059 0.958041 0.125063 0.111138 0.089698 -0.072666 -0.321792 -0.052944 0.161028 0.235595 0.662371 -0.713533 0.526109 0.008571 -0.126636 0.255311 -0.274454 -0.286558 0.128183 -0.452207 1.077997 -0.145189 -0.038098 0.005924 0.852770 0.192811 -0.365282 0.268593 -0.257579 -0.149813 0.250884 0.578708 -0.459438 -0.360866 0.109241 0.061001 -0.979832 0.134463 -0.318984 -0.401363 -0.302501 0.164156 -0.112499 -0.340546 0.209243 -0.228325 0.212388 -0.835619 -0.388593 0.226350 0.550069 0.769718 0.340565
L -0.329077 0.626493 -2.013128 0.619556 0.514642 0.281026 -1.239542 -0.775811 0.687164 0.388751 -0.718291 -0.346202 -0.070477 1.054461 -0.118876 0.802091 0.405100 -0.995374 0.683001 -0.803554 -0.462895 0.457534 0.565019 0.431108 -0.205942 0.307112 -0.288761 -0.050269 -0.570118 -0.629959 -0.513544 -0.390985 0.473948 -1.577213 -0.480509 -0.048013 -0.702512 -0.062816 0.545304 -0.257295 0.548095 0.190313 0.788876 -0.010251 0.983924 -0.589336 -1.494920 -0.813798 0.839166 -0.080754 -0.515866 -0.206795 -0.359192 0.108354 0.046631 -0.549412 0.573988 0.479348 -0.380985 -1.259495 0.184308 0.473337 0.254681 -1.028201
； 0.251465 0.921196 -1.173052 0.119059 0.107586 -0.058795 -0.035674 0.285750 -0.693950 0.532629 -0.171334 -0.661165 0.321518 -0.023315 0.665996 -0.046144 0.183959 0.122278 0.854520 0.042999 -0.037098 0.351395 0.651991 -0.260350 -0.995132 -0.245118 -0.466978 0.494514 0.060079 0.111437 0.281014 -0.190129 -0.856697 0.258259 -0.105693 0.207102 -0.149294 0.066909 0.251216 -0.504878 -0.640625 0.526385 0.052291 0.253309 0.160952 -0.273621 0.021701 -0.262690 0.207364 -0.309472 -0.214214 -0.269559 -0.089067 0.261705 -0.302826 0.240884 -0.243628 0.210132 0.208699 0.670984 0.082232 0.126359 0.461560 -0.035703
理 -1.001927 0.674444 0.146078 -0.414036 -0.138464 -0.151439 -0.005863 0.185601 1.139200 0.102282 -0.252018 0.236269 0.408562 0.301693 -0.407633 -0.285681 1.049115 0.271469 0.577923 0.427968 -0.552422 -0.730304 0.144276 -0.741323 0.239814 -0.467148 -0.049121 0.899195 0.888261 0.122112 0.443152 1.513564 -0.242279 -0.794542 -0.260225 0.875918 0.268415 -0.074138 -0.206999 0.233342 -0.682152 -0.035439 0.713469 -0.220243 0.232674 -1.029226 0.674999 -0.675870 -0.586412 -1.146253 -1.073040 0.015015 0.293437 0.954855 1.736397 -0.778567 0.440427 -0.359002 -0.591917 -0.303883 0.755861 0.216041 0.176822 0.610538
前 0.101794 0.382572 0.078913 -0.100473 -0.530723 0.039199 -0.030838 0.072310 0.522569 0.301090 0.420042 -0.363135 0.071628 0.760530 0.478519 -0.119346 0.286191 0.332818 -0.116420 0.299269 0.153327 0.246076 0.161735 -0.022701 -0.310466 -0.144445 -0.449580 0.000571 -0.264299 0.627907 0.009746 0.558614 0.359942 0.373841 -0.730926 0.113175 -0.401832 0.612341 -0.306236 0.264822 0.001387 0.554824 0.572341 0.006019 0.072648 -0.002795 0.353141 0.566488 -0.408756 -0.031352 0.097253 0.326955 -0.704381 0.575461 0.309032 -0.167227 -0.754552 -0.262289 -0.064889 -0.135216 0.152278 0.774694 0.652065 -0.254403
活 0.493928 -0.254893 -0.517269 0.529893 0.201082 0.184313 -0.143242 0.160498 0.104329 0.888830 -0.753397 -0.052296 -0.027420 -0.047987 -0.327547 0.238914 -0.496208 0.186234 0.212761 -0.215968 -0.564879 0.714571 -0.491526 -0.302604 -0.356527 0.265648 -0.220154 0.721817 0.337000 -0.186556 -0.082011 1.031752 -0.540205 0.212296 -0.995106 -0.018377 -0.727120 0.348870 0.445064 0.009986 -0.837292 0.165869 0.481846 -0.463999 0.217196 0.484419 -0.046570 -0.429211 0.525424 -0.204791 0.080168 0.461388 -0.267362 -0.170772 -0.230087 0.119795 -0.159946 -0.309532 0.488495 0.162880 0.490924 0.327635 -0.048361 -0.164437
等 -0.014781 0.435678 -0.142416 0.214998 0.092060 0.553933 1.142721 0.297869 0.657547 0.682502 -0.080569 0.214455 0.325465 0.576151 0.826923 -0.723811 0.089977 -1.062759 -0.093380 -0.544803 0.172077 0.881897 0.334726 0.126391 -0.279003 -0.152255 -0.797933 -0.113830 0.064343 -0.336857 -1.090977 0.424718 -0.219258 -0.166592 0.215048 0.183696 0.480297 0.581207 -0.091290 -1.075794 -1.233195 0.527606 0.086307 -0.331710 -0.143666 0.006566 0.427178 -0.176609 0.462827 -0.549192 0.575502 0.665385 0.690581 -0.384155 -0.143247 0.081872 0.879422 -0.350083 -0.171871 0.264023 0.055983 -0.712280 -0.564942 0.164309
软 -0.645171 1.009932 -1.010786 0.037582 0.012447 -0.012371 -0.167807 -0.525520 -0.338024 0.327811 1.019171 -0.053572 0.964465 0.192535 -0.768366 0.262947 -0.280651 -0.094317 0.558918 0.661995 1.036940 0.282201 -0.440137 -0.787427 0.436575 0.422167 0.176802 0.311065 -0.153483 0.884648 -0.682164 1.032138 -0.681895 -0.168341 -0.427894 0.857571 -0.167076 0.010864 -0.095559 1.054206 -0.761940 -0.290622 0.408535 -0.268082 0.073801 -0.952500 0.275720 -0.309615 1.546806 -0.544413 -0.676989 0.195864 0.088554 -0.380978 -1.058409 -0.370935 0.755181 -0.539467 -0.372327 0.278304 -0.098172 -0.308659 -0.194813 0.379330
显 0.005962 0.093200 0.043736 0.294970 -0.560956 0.175852 -0.443368 0.455725 0.047825 -0.045608 0.036467 -0.064614 0.822006 1.235570 -0.078060 0.280864 0.111837 -0.226616 0.438980 -0.084909 -0.394930 0.376591 0.188518 0.491971 0.457457 -0.002874 0.196926 0.055112 0.125366 0.303581 0.109609 0.287080 0.005932 0.390606 -0.781334 0.427036 -0.647797 0.697377 -0.175739 -0.151258 0.068174 -0.260503 0.627381 -0.381452 -0.252652 0.744489 0.282557 0.220320 0.057332 -0.555134 -0.500039 0.327677 0.647880 0.259221 -0.313103 0.310200 -0.475422 -0.177755 -0.318488 -0.205549 0.198802 0.315660 0.007135 -0.098495
椎 0.117875 0.793353 -0.767858 0.661938 0.591220 -0.030846 -0.050901 -0.154785 0.630634 0.652949 -0.556660 -0.776890 0.686325 -0.240854 0.408881 -0.688931 0.225361 0.183699 0.107160 -0.386902 -0.566625 0.561047 0.713741 -0.117835 0.266934 -0.466766 -0.144847 1.015293 -0.278712 -0.166750 -0.754214 0.905441 0.411755 -0.263197 -0.633064 0.269058 -1.294824 0.179145 0.402272 0.334430 0.328049 0.247009 0.656786 0.732528 -0.450788 0.138589 0.567755 -0.812540 0.806134 0.281181 -0.537492 0.051160 0.282609 -0.408773 0.315351 -0.554005 -0.581563 0.217439 -0.340593 -0.554521 -0.341212 -0.020531 0.298519 -0.319460
为 0.624658 0.843408 -0.541952 -0.003700 -0.250326 0.410416 0.126865 0.143231 -0.399811 0.987584 0.431961 -0.797379 -0.283544 0.841863 0.295372 0.509751 0.370894 -0.127292 -0.229095 -0.770962 0.186989 -0.692150 0.163335 -0.314528 0.439790 -0.632410 0.899216 -0.596570 -0.147590 0.521977 -0.635652 0.101532 -0.540011 0.052851 0.483306 -0.103193 -0.467773 -0.759745 0.511023 -0.493632 -0.411415 -0.712691 0.379828 -0.702428 0.647559 0.180655 0.313598 -0.141028 0.136297 -0.611324 0.048922 0.217597 0.179825 0.068721 0.261589 -0.070096 0.033755 0.430872 -0.409761 -0.233578 -0.102200 -0.022615 0.314705 0.976267
予 0.265004 0.750062 -0.241198 0.209339 -0.021972 0.642966 -0.046471 -0.559977 0.238291 1.160764 -0.163793 0.096487 0.271308 0.096760 0.510026 0.100192 0.461210 0.166265 0.585356 -0.292995 -0.440484 0.229798 -0.242754 -0.269010 0.202571 -0.466541 0.352327 0.540444 -0.135862 -0.024579 0.098269 -0.342762 -0.054246 -0.566030 -0.764144 -0.277956 0.436115 0.223399 -0.146328 -0.318763 -0.052556 -0.204115 0.140506 -0.602284 -0.090102 -0.392731 0.098243 0.181070 -0.331424 -0.119118 -0.060958 0.384430 -0.391815 0.128473 0.159126 -1.056423 -0.105235 -0.493746 -0.234964 0.044891 0.646888 -0.350595 0.776124 -0.277089
肠 0.616744 0.575344 -0.872306 0.806339 0.051189 0.677604 -0.104719 -0.941472 0.479159 0.581381 -0.285138 0.162580 0.469512 0.828349 -0.848880 -0.080427 0.420274 -0.723616 0.289917 1.079899 0.567915 0.054739 0.648007 -0.437224 -0.456019 -0.579655 -1.209819 0.669131 -0.177597 1.091825 -0.213864 0.633592 -0.932258 -0.028851 -0.978718 0.806640 -0.225274 -0.217388 -0.337516 -0.454956 0.594112 -1.172416 -0.124188 0.114913 0.461875 0.170911 0.524281 -1.330034 -0.512601 0.354788 -0.422972 -1.005681 0.141925 -0.214782 -0.653493 -0.788351 0.745437 0.464559 -0.909137 0.330683 0.402851 0.471863 0.658804 0.186392
张 0.323099 0.016974 -0.852348 0.836239 -0.314245 1.371653 -0.379225 -1.005608 0.049870 0.453143 -0.258348 -0.583758 0.024448 0.450193 -1.119137 -0.455214 0.892162 -0.294498 -1.424475 -0.147430 0.750481 0.671329 1.073254 -0.298491 1.129759 0.333846 0.446717 -0.085184 0.740260 0.274154 0.446702 0.429934 -0.912951 -0.024055 -1.019332 0.673962 -0.449800 0.512507 -0.375185 -0.292048 -0.316562 -0.283018 -0.023061 0.050518 0.475364 -0.660923 0.253638 -0.114342 1.107794 -0.421289 -0.722660 -0.436502 0.125068 0.144401 -1.029390 0.036304 0.507013 0.416675 -0.082494 1.053718 0.399768 -0.490218 -0.065090 0.206508
腰 -0.022644 0.439420 -0.663938 0.044936 0.270274 -0.412045 -0.318474 0.321915 0.653691 0.404038 -0.354100 -0.004057 0.637294 -0.098853 -0.168025 -0.027284 0.535088 0.196690 -0.423811 -0.274401 -0.067615 0.402236 -0.049477 -0.019665 -0.179078 -0.363752 0.061676 0.633478 -0.221942 -0.806658 -0.379502 0.351681 -0.152127 -0.026916 -0.704019 0.619712 -0.619126 0.403180 0.320341 -0.190262 0.300340 -0.262604 0.686140 0.011847 0.177684 0.222192 0.327072 -1.259157 0.470536 -0.142461 -0.121542 0.298775 -0.038009 -0.661250 0.222375 -0.416753 -0.848886 0.040587 0.301731 -0.416663 -0.372185 0.484870 0.156361 0.256077
小 0.242394 0.159042 -0.820229 0.420138 0.166706 0.114299 -0.301218 -0.406795 1.134321 -0.493941 -0.352341 -0.639806 -0.068993 0.416853 -0.236826 -0.316250 -0.655706 -0.322900 0.132859 -0.959212 0.414107 -0.007059 -0.939523 0.324909 -0.074364 -0.297496 0.269448 -0.184800 0.074656 0.848710 0.439207 0.430744 -0.015866 0.422941 -0.239092 -0.192885 0.231352 0.175334 -0.078495 -0.540403 0.334384 1.066556 0.848293 -0.354853 0.089300 0.163236 -0.412396 0.291007 -0.798002 -0.753109 0.051867 -0.086114 -0.351558 0.189905 -0.597797 0.013578 -0.050998 -0.049236 0.721766 0.045366 0.082332 0.101662 0.676257 0.095563
史 0.861633 -0.110930 0.400693 0.333906 0.201439 -0.116490 0.886378 -0.253468 0.653469 0.393825 1.046017 0.187133 1.186922 0.451051 0.445176 0.735137 0.201547 0.330211 0.448054 0.361845 0.436339 0.175709 0.405669 0.050570 -0.619399 -0.736035 0.073365 0.162317 0.348302 -0.171521 -0.415725 0.446547 -0.169316 -1.316239 -0.929993 0.160361 -0.374010 -0.712241 0.388205 -0.415601 0.130317 -0.360019 0.883000 0.841215 0.434670 -0.396252 0.098150 0.942863 0.840619 -1.180890 -0.523686 -0.312628 0.125360 0.577100 0.805320 0.710325 0.347843 -0.299093 -0.173200 0.722435 0.205119 0.032733 0.985510 -0.153511
药 0.309657 0.135778 -0.281291 0.293458 -0.316670 0.209508 0.488032 -0.824634 0.159874 0.173123 0.412566 0.210927 0.071535 -0.162960 0.723465 -0.119658 0.057992 -0.599091 0.479252 0.035943 -0.434820 0.431431 0.123194 0.012162 -0.882582 -0.614757 0.299215 0.473641 -0.863930 -0.444778 -0.718332 0.720684 -0.277593 0.008226 -1.312922 0.206017 0.517527 0.395246 0.049856 -0.712217 -0.291328 0.358204 0.173445 -0.202501 -0.744868 0.074806 -0.272229 0.528817 0.699757 -0.788470 -0.096372 0.654336 -0.323536 -0.200549 0.243304 -0.804927 0.363269 -0.213484 -0.032383 0.314153 -0.392456 -0.767667 0.089421 0.339715
以 0.188852 0.698696 -0.644112 -0.226886 -0.039181 0.091005 0.203726 0.202316 0.016579 0.556965 0.052354 0.240685 0.089747 0.192079 0.275375 0.209108 0.342731 0.512989 -0.042407 -0.225580 0.079797 -0.245070 -0.042470 -0.259485 0.245761 -0.239141 0.975306 -0.021460 -0.454175 0.274660 0.074452 0.758809 -0.237667 -0.090035 0.378649 -0.028355 -0.339459 -0.316725 0.477724 -0.398880 -0.760485 -0.618069 -0.233419 -0.080304 0.328694 -0.351782 0.323423 0.386900 -0.184623 -0.570130 -0.032928 0.750807 -0.510466 -0.406448 -0.302671 -0.166197 -0.318226 -0.365882 -0.322932 -0.074475 0.444947 0.110467 0.622908 -0.022347
C -0.875466 0.448254 -0.537262 0.186262 0.487829 0.084570 0.060132 -1.159401 0.286676 -0.400928 -0.441260 -0.623975 1.283117 0.499849 -0.264316 0.273965 0.599619 0.337978 -0.137496 0.188711 0.132120 0.009435 0.426184 0.260021 0.215184 0.264847 0.747135 -0.394948 -0.460434 -0.385925 -0.785104 0.581115 -0.824210 -1.027994 0.014460 -0.159585 -0.376460 0.536983 0.977633 -0.249666 -0.471087 0.186723 0.379489 0.191374 0.053771 -0.344562 0.151854 0.024481 -0.185904 0.880851 -0.213653 0.370978 0.556427 0.134566 0.018450 -0.874757 -0.375489 0.566815 -0.159128 -0.347430 -0.506296 -0.039653 0.419636 -0.606269
骨 -0.238295 0.984015 0.075642 0.172809 -0.650959 0.206614 0.162103 -0.936727 0.759091 0.013287 -0.259464 -0.030203 0.727287 -0.163938 -0.367036 0.421998 -0.226676 0.082577 0.417237 -0.418815 0.643449 0.588154 0.456692 -0.756537 0.220539 -0.466372 0.561106 -0.047641 -0.512352 0.121088 -0.460551 0.764111 -0.022845 0.253082 0.318957 0.712979 0.078636 0.518870 -0.068288 0.305302 0.514434 0.368775 0.276005 -0.039286 -0.630834 -0.163727 0.066377 -0.175810 0.293574 -0.593049 -0.591153 0.048573 0.050017 -0.256160 -0.131718 -0.224995 -0.596355 0.330632 0.841548 0.195181 0.445345 -0.043422 -0.176897 0.245831
日 0.524276 1.105724 -0.567304 -0.137511 -0.174689 -0.022354 -0.456963 0.385656 0.201271 1.057185 -0.743008 -0.325716 0.584762 -0.087819 -0.382234 0.580254 0.633287 0.542000 0.307771 -0.534675 0.285794 0.141370 0.328342 0.456290 -0.003804 -0.687602 0.528966 0.227456 -1.163713 -0.320931 -0.001089 -0.659496 -0.028555 -1.089914 -0.926333 0.051491 0.168114 0.619919 0.023686 0.200476 -0.061870 -0.464786 -0.559035 -0.106407 -0.187933 0.068398 -0.958309 0.076766 -0.575032 -0.733317 0.489117 0.228146 -0.380433 -0.293439 0.097473 -0.910666 0.375675 -0.123013 -0.064211 -0.045980 0.217661 0.362554 0.503175 0.429053
伤 0.429644 0.535914 -0.612354 -0.114718 0.699998 0.498114 0.169851 -0.478965 1.009925 -0.029642 0.011412 0.611393 0.670205 0.133423 0.389026 -0.018651 -0.342885 0.905532 -0.480723 -0.145744 -0.562169 0.666354 -0.619054 0.088076 0.105876 -0.053173 0.025154 -0.454009 -0.193077 0.064684 -0.297047 0.162369 0.146201 0.607807 -0.328859 0.403962 0.191880 0.075709 -0.161053 0.088740 0.353805 -0.486258 0.865277 -0.512529 0.051709 -0.438053 0.791164 -0.004301 -0.046307 -0.185003 0.009297 -0.020040 -0.951244 0.047194 -0.002803 -0.352916 0.419424 -0.106272 0.657791 -0.321168 -0.087954 0.023994 1.152989 0.051228
: 0.674072 -0.008177 -0.973084 0.457607 0.080219 0.296600 -0.211913 -0.157507 0.165471 -0.244179 -0.775236 0.074294 1.199031 1.076480 0.358884 -0.391194 0.135071 0.614814 0.370903 -1.370602 0.982674 -0.197420 0.764316 0.430512 -0.046411 -0.844626 0.617290 -0.175538 -0.103894 0.336102 -0.669442 0.178319 -0.212631 -0.587174 0.573069 -0.045992 -0.731958 0.857700 0.355987 0.285733 -0.996921 -0.685083 -0.048417 0.113147 0.110681 0.367323 -0.346296 -0.210281 -0.322691 0.381012 -0.212625 0.278172 0.062523 -0.138324 -0.460616 -1.236413 0.239957 0.265085 0.129734 0.324558 -0.300768 0.545093 0.270802 0.074489
力 0.259659 -0.476326 -0.258233 -0.208458 -0.678966 0.988426 0.209927 0.206863 0.697203 0.356369 -1.208434 -0.164429 -0.237515 0.098314 -0.871636 0.438710 0.814045 0.410571 -0.266441 -0.306058 -0.749327 0.922669 0.401466 0.718492 -0.393342 0.508485 -0.206575 -0.405311 0.020485 -0.056799 0.055070 0.978917 -1.025535 -0.568668 -0.134329 1.616298 -0.223291 0.579464 0.679152 -0.703641 -0.529548 0.271893 -0.146108 0.343988 0.720551 0.031805 0.445620 0.231931 0.692819 -0.106416 -0.101410 0.505655 -0.473590 -0.191630 0.197147 0.027992 0.393365 -0.484408 -0.227987 0.082498 0.620827 -0.239437 0.114348 -0.158259
主 0.691077 0.190007 -0.687660 0.836941 -0.194282 0.249266 -0.141278 0.026315 -0.061300 0.010951 0.475990 -0.696062 1.084715 0.437063 -0.828923 0.851931 0.187788 -0.237075 -1.330347 0.771798 0.948955 -0.326113 -0.229996 0.433514 0.391990 -0.216421 0.851640 -0.631937 -0.135026 -0.363892 -0.145678 -0.118711 0.442600 0.057461 -0.506154 -0.414733 -0.191168 -0.338253 0.521346 0.002264 -0.998643 0.040278 0.901039 0.330767 -0.110061 -0.075497 0.605236 -0.183577 0.686704 -0.320064 0.303308 1.010369 -0.097205 0.179092 -0.212008 -0.112961 0.357192 -0.244453 -0.136193 -0.197592 0.592309 0.318421 0.011584 0.194578
P 0.155844 0.415731 -0.037681 -0.015317 -0.045246 -0.146815 -0.280994 -0.289971 0.873560 0.067278 -1.715130 -0.280919 1.402250 1.569290 -0.545539 0.651077 -0.368997 0.227436 0.349012 -1.683643 0.342610 0.461237 1.263220 -0.267507 -1.056801 -1.003863 -0.063111 -0.379650 0.540117 0.072091 -1.077590 -0.065027 0.027211 -1.028250 -0.411860 1.027358 -0.470796 0.215559 0.639608 0.490756 -0.972133 -0.778754 0.727845 0.702040 -0.428145 -0.112447 -0.625827 -0.186888 -0.542194 0.268700 -0.002677 -0.471345 -0.922055 0.127611 0.364018 -1.413201 0.341179 0.711644 -0.064374 -0.094483 -0.403229 0.444895 -0.193202 0.526915
平 0.141186 0.379354 -0.238904 0.399700 -0.197981 0.122677 -0.320951 -0.576034 0.582853 0.235183 0.327567 0.509261 0.804625 0.459546 -0.361056 -0.113354 0.457523 -0.829771 -0.356294 -0.818356 -0.611218 -0.329299 -0.465561 -0.467171 -0.200953 0.581927 0.167640 0.682022 -0.191956 0.068343 -0.066578 0.440291 -0.925295 -0.259597 -0.424949 -0.225438 -0.083681 -0.031679 -0.319405 0.045175 -0.282838 0.120744 0.682561 -0.439900 -0.337572 0.139547 -0.780474 0.268213 -0.224796 0.053062 0.023375 -0.301539 0.733807 0.315823 0.184114 -0.689549 -0.468408 0.433603 0.152046 -0.297189 -0.154096 -0.153687 -0.011831 0.664166
结 -0.280393 0.248093 0.073073 0.532911 0.006694 -0.017271 -0.187615 -0.745996 0.457229 -0.309248 0.077853 0.459039 0.192247 0.878947 0.636830 -0.530377 -0.096165 -0.042761 0.698333 -0.016387 -0.213989 -0.474041 0.025732 0.112887 -0.406056 0.618504 0.274738 -0.725450 0.374706 0.239714 -0.765274 0.485256 -0.295456 -0.426954 0.170432 0.537285 -0.017221 0.087381 -0.102438 -0.153632 -0.463542 0.555878 -0.087169 -0.128948 -0.697738 0.586560 0.742117 0.216905 0.907013 -1.146487 0.073244 -0.184123 0.091699 -0.075878 -0.196255 0.313032 -0.351431 0.174833 0.067896 -0.112289 0.286041 0.200809 0.323389 -0.180233
疼 0.051674 0.640698 -0.426515 -0.304491 0.071832 -0.178348 0.099996 0.253170 0.516585 0.989238 0.130492 -0.167445 0.032374 0.424192 -0.499045 0.700493 -0.228197 0.358198 -0.096648 0.411747 0.223147 0.241805 -0.833546 -0.134218 0.121331 -0.108683 -0.223916 0.017970 0.081554 -0.499631 -0.484140 0.395084 -0.088554 0.571071 -0.522503 0.451526 -0.186116 0.603321 0.203317 -0.318009 -0.089805 -0.324586 0.449431 -0.014920 -0.271557 -0.242628 0.530378 0.574608 0.274397 -0.555164 -0.190548 1.084772 -0.642146 -0.129504 0.242482 -0.029862 -0.106044 -0.076803 0.061579 0.038901 0.047037 0.668450 0.421819 0.007444
白 -0.582522 0.031205 -0.838762 0.957343 -0.193394 -0.381453 -0.390874 -0.354296 -0.681104 -0.612584 -0.455289 -0.660257 -0.177759 0.929284 -0.585466 -0.920034 0.954565 -0.266692 0.466099 -0.647883 -0.259677 0.114918 1.018292 0.455178 -0.353758 -0.351769 -0.458632 -0.607863 0.614314 -0.586897 -1.773315 1.133560 1.013378 -1.874967 -0.611846 0.197474 -0.389423 -0.612852 0.191714 -0.461326 0.042262 -0.080398 1.375197 -1.103095 0.095559 -0.858542 0.541490 0.368520 -0.271265 -0.524689 0.589576 -0.234219 0.066441 0.823166 -0.479203 -0.324041 0.437882 0.245128 -0.891787 -0.377685 -0.532222 0.219653 1.358929 -0.254731
管 -0.501861 0.678692 -1.104797 0.423964 -0.441170 -0.014022 -0.068694 -0.392773 1.047868 1.040222 0.277657 0.620643 -0.495803 0.382723 0.139118 -0.554118 0.839370 0.416609 0.455017 0.237279 0.507083 0.228901 -0.044132 -0.466546 0.211832 0.042746 -0.419495 0.524243 -0.570911 0.302888 0.063818 0.339233 -0.708466 -0.393357 0.007527 -0.201086 0.168062 0.334199 0.906815 0.085218 0.097544 0.654791 -0.180603 -0.603801 0.100300 0.506039 0.012265 0.856024 0.848271 -0.385922 -0.750717 -0.253182 -0.098084 0.398368 -0.247717 -0.364716 -0.944815 0.062289 -0.250978 1.008649 -0.283897 0.201555 0.384571 0.881444
阴 0.025107 0.952558 -1.134279 0.068652 -0.958167 0.199138 -0.707942 0.123320 -0.303072 0.443992 -0.643874 -0.332642 0.519499 0.328822 -0.600766 0.353456 -0.514152 -0.981108 -0.422958 0.400582 -0.359401 0.119390 -0.159081 0.501575 0.993075 -0.348254 -0.390896 -0.599084 0.071169 0.001297 -0.180409 0.638670 -0.579254 0.826398 -0.299903 -0.450217 -0.049386 -0.726801 -0.689630 0.077459 -0.007396 -0.168950 0.672884 -0.146536 0.418144 0.444519 0.354508 0.261876 0.890582 -0.891880 -0.615514 0.450893 -0.085874 0.429529 0.481923 -0.326923 0.364434 0.633471 -0.087022 0.694601 0.880309 -0.043248 -0.462970 -0.309622
状 0.761848 0.505719 0.191491 0.072821 -0.264531 -0.056812 -0.620090 -0.385475 1.201617 0.480073 -0.034715 -0.849371 0.574506 0.033633 -0.182595 0.483782 0.992888 -0.418512 0.215657 -0.054200 -0.421852 -0.015714 -0.201034 0.023976 -0.303045 0.487765 -0.190958 0.067707 0.183713 0.038926 -1.148025 -0.059507 -0.065121 0.193998 -0.289307 -0.131386 0.217468 0.645371 0.267709 0.316648 -0.385267 -0.354797 0.298504 0.267176 -0.034956 0.351383 0.671654 0.415709 0.150596 -0.673105 0.809080 0.480679 -0.086045 0.018355 -0.217550 0.596269 -0.245701 -0.751505 -0.810996 -0.333569 -0.501268 0.441300 -0.604523 0.363626
给 0.085814 0.794244 -0.160224 0.299906 -0.098036 0.773046 -0.030231 -0.698345 0.457258 1.148046 -0.263975 0.080719 0.286757 0.027519 0.636015 0.121675 0.272755 0.343045 0.547264 -0.376426 -0.300300 0.111293 -0.215353 -0.382412 0.076916 -0.485090 0.388411 0.532124 -0.196198 0.017956 0.136354 -0.254679 -0.050286 -0.598930 -0.556879 -0.373790 0.346245 0.065621 -0.321943 -0.356994 -0.050533 -0.142280 0.438744 -0.488977 0.112777 -0.374055 0.243429 0.102852 -0.312245 -0.012215 0.020588 0.408199 -0.283114 -0.082468 0.197709 -0.824681 -0.274807 -0.239923 -0.255479 0.123445 0.489939 -0.406742 0.731241 -0.036853
气 -0.141583 0.097886 -0.053617 0.528346 -0.004478 0.676497 0.112236 -0.388655 0.586767 0.718951 -0.881213 0.008777 -0.124801 -0.014031 0.592729 -0.978594 0.432380 -0.284809 0.006079 0.913873 0.453956 0.026755 -0.642536 0.151929 0.642612 -0.006201 -0.726702 0.668878 -0.698277 0.084446 -0.209544 0.590028 0.151496 -0.490511 -0.387573 0.000145 -0.072419 0.590327 0.878113 -0.444983 -0.430045 -0.427465 0.068955 0.122319 0.290916 -0.001001 1.051728 0.486663 0.519512 -0.367832 -0.696614 0.151970 -0.044273 0.637624 -1.358947 0.163693 -0.470152 -0.121275 -1.375395 0.361345 -0.191536 0.711038 0.805507 0.771775
合 0.072648 0.127538 0.145136 -0.028893 0.148941 0.982542 0.265662 -0.298594 0.354107 0.235829 -0.130497 0.041042 0.556383 0.110097 0.913084 0.029548 0.206094 -0.036542 0.479946 -0.500850 -0.781813 -0.338238 0.291423 0.326163 -0.166983 0.025835 0.189299 0.133371 -0.004975 0.385039 -0.520946 -0.200088 -0.562876 -0.505532 -0.321999 0.313512 0.569785 -0.298106 0.023488 0.200608 -0.437685 -0.141881 0.177701 -0.660506 -0.638338 0.647098 0.237073 -0.533168 0.843178 -0.550310 -0.010517 0.360932 -0.365898 0.369639 0.210131 0.466328 0.206190 -0.110105 -0.289681 0.451116 -0.332080 0.379751 0.347628 0.004745
叩 -0.242010 0.152915 -1.261950 0.803894 0.323451 -0.564501 -0.871814 -0.234591 0.165137 0.838922 0.069599 -0.055952 0.836979 0.515334 -1.006022 -0.521158 0.082386 -0.900921 0.526101 0.928385 1.423127 0.702330 -0.161884 0.737041 0.459917 1.169006 0.342839 -0.054274 -1.457785 0.417522 0.449784 0.302917 -0.453065 0.863730 -0.166874 1.256732 0.031542 0.059436 -0.012361 0.616745 -0.866316 0.194773 0.125013 0.353604 0.311760 -0.450487 -0.285132 0.250723 0.132076 -1.781196 -1.415445 -0.037758 0.392087 0.066287 -0.179096 0.229262 -0.432282 0.974512 0.584728 1.167057 -0.359517 1.116073 0.436841 -1.003284
细 -0.223216 -0.172443 -1.008537 0.245917 -0.541044 0.336939 0.240036 -0.257078 0.982092 -0.427574 -0.505292 -0.217383 -0.508895 0.678066 -0.162697 0.140634 -0.084032 -0.307815 1.512728 -0.618466 0.092839 0.053132 0.323775 0.106780 -0.326133 -0.437435 -0.853003 0.334904 -0.655976 -1.056617 -0.772551 -0.137730 -0.682135 -1.780536 0.044873 -0.053388 -1.078261 -0.305104 -0.059805 0.844595 -0.679366 0.933091 1.205488 -0.322156 0.820047 -0.562805 -0.541083 -0.929711 -0.208688 -1.159006 0.261653 0.480319 -0.268487 0.286073 -0.642923 -0.533153 0.068669 0.714967 -1.212040 0.926003 0.874816 0.499544 0.455241 1.099495
颈 0.533360 0.737431 -0.218387 -0.398320 0.196889 -0.128551 0.025102 -0.315285 0.459976 0.594318 -0.993437 0.271214 0.374230 -0.192355 0.172978 -0.444990 0.563130 0.219493 -0.374837 -0.120848 -0.555909 0.414732 -0.169776 0.518091 -0.130708 0.395761 -0.264537 0.086631 -1.041272 -0.002520 -0.524614 0.211503 0.109798 -0.118181 -0.637441 0.564935 -0.626583 -0.219109 0.092655 0.262560 0.062053 0.068262 0.224067 0.173480 0.367635 -0.149062 -0.151569 -1.148312 1.044029 -0.278229 0.091984 0.368965 0.364730 -0.324141 -0.516615 -0.299142 -0.970753 -0.233749 -0.688563 0.024025 -0.303981 0.097602 0.399435 -0.037217
胞 -0.005569 0.737166 -0.462213 0.135539 -0.452631 0.556062 0.502252 -0.859805 0.946916 -0.956510 -0.190665 -0.009461 -0.582818 1.074795 -0.857564 0.640141 -0.403487 -0.549689 1.899439 -0.335476 0.676695 -0.101978 0.164227 -0.135496 -0.002756 -0.757831 -0.809732 -0.434153 -0.355500 -0.741903 -1.078704 -0.701001 -0.182789 -1.668365 0.080576 -0.050830 -0.054256 0.225674 0.159944 0.317567 -1.233089 0.639600 0.894395 -0.404080 0.939513 -0.797748 -0.156066 -0.743964 -0.313047 -1.675149 0.600257 0.126401 -0.061142 -0.707362 -0.452399 -1.224684 -0.123888 0.831357 -1.383955 0.425003 0.272195 0.160738 0.242920 0.697048
热 1.588417 -0.279138 -0.383991 0.315355 -0.556540 0.664149 -0.154438 0.067353 0.503961 0.581622 -0.127316 0.143365 -0.144478 0.342514 -0.127462 0.400051 0.372042 -0.304547 -0.225476 0.793206 0.291618 0.368260 -0.165136 0.482409 0.236847 -0.403442 0.281168 -0.490215 0.286584 0.241752 -0.546463 0.029456 -0.148877 0.070759 -0.248422 0.263035 0.226345 -0.101272 0.792972 -0.334880 -0.892128 -0.021953 0.427426 -0.064672 -0.889673 -0.297992 0.114479 0.706620 -0.239581 -0.231297 0.019634 0.523010 -0.693673 0.050930 -0.241643 -0.271989 0.516899 -0.674825 -0.200059 -0.142383 -0.414286 0.653533 0.481224 0.238304
现 0.483241 0.150228 -0.705982 0.045215 -0.274553 0.144047 0.230271 0.171649 0.008864 0.791371 0.387147 -0.606445 0.182097 0.191778 -0.396723 0.550879 0.384173 0.417424 -0.316636 0.177876 -0.290671 -0.305893 -0.517593 0.019354 0.488793 -0.083844 0.229690 0.074694 -0.199557 0.236874 -0.182025 -0.184477 -0.139683 0.034884 -0.539465 -0.235711 -0.159409 0.127145 0.325791 -0.443285 -0.363231 0.423849 1.029905 -0.442677 -0.116562 0.153305 0.910515 1.003698 0.124597 -0.387510 0.595598 0.362121 -0.085648 0.365279 -0.286068 -0.532270 -0.651360 -0.046767 0.946534 0.180818 -0.015172 0.286750 0.407264 0.417321
高 0.165767 0.134433 -0.589369 0.031304 -0.818890 0.781154 -0.057420 -0.369152 0.156064 0.031071 0.315614 0.374100 0.174462 0.717292 -0.101176 -0.023125 -0.036118 0.159007 -0.138748 -0.315664 0.144199 -0.118456 0.113894 -0.598446 -1.029878 -0.449113 -0.105611 -0.723604 -0.113899 0.267770 0.222506 0.908922 -0.097432 -0.063290 -0.799543 0.105475 -0.252130 0.118154 0.753179 -0.313679 0.420137 0.472032 0.288243 0.421388 1.184494 -0.604735 -0.053513 0.084363 0.114689 -1.508304 -0.433804 -0.734810 0.429725 0.615920 0.145712 0.407631 -0.072509 0.192877 -0.172895 0.799198 -0.647826 -0.118402 0.196962 -0.752913
形 0.118169 -0.067391 0.050964 0.430269 0.993951 -0.405361 -0.240324 -0.798403 1.099093 -0.484690 0.019300 -0.102064 0.700344 0.220230 -0.075978 0.324803 0.098444 0.940128 0.854509 -0.103758 0.407961 -0.231393 0.278109 0.312633 1.124546 0.524095 -0.084008 0.227348 -1.105159 -0.439858 -0.141523 0.858922 -0.491793 0.927851 -0.407874 0.289059 -0.210285 -0.246314 0.578402 0.500453 -1.272623 0.414727 0.329430 -0.354344 0.018610 -0.236930 0.240785 -0.346090 0.597839 -0.845514 0.165013 0.039516 0.376769 -0.944393 -0.560338 -0.360713 0.340734 -0.331073 -0.610849 0.010727 0.518223 -0.368025 0.652728 -0.884736
上 -0.268845 0.863972 0.236216 0.212589 -0.150815 0.224401 0.246898 -0.280877 0.768622 -0.086135 0.214141 -0.277796 -0.384236 1.040857 -0.358835 0.330898 0.648615 -0.109742 -0.164111 -0.271587 0.198746 0.148131 -0.283382 -0.103030 0.394666 -0.222427 0.353288 -0.133345 -0.241038 0.105045 0.364089 0.277056 0.472012 0.309106 -0.523526 0.205939 -0.259209 0.646473 0.240126 -0.315540 -0.140484 -0.656064 -0.139667 -0.282353 0.183759 -0.068889 0.775712 -0.379253 0.543886 -0.380021 0.019316 -0.074538 0.250052 0.129120 0.060191 0.215188 -0.429619 -0.097942 -0.090503 -0.110308 -0.114225 0.451208 0.225372 0.330467
示 -0.086093 0.485215 -0.404566 0.466183 -0.169342 -0.356654 0.534335 -1.077690 0.117307 0.544503 -0.459460 -0.409437 0.484488 0.223933 0.352359 -0.198291 0.176848 -0.205739 0.645532 -0.697692 -0.630322 -0.464756 0.527362 0.225447 0.675820 0.335384 -0.169235 -0.314013 -0.265200 0.346462 -0.050666 -0.524910 -0.754933 -0.462355 -0.278565 -0.213261 0.103821 0.452596 1.045342 0.104071 -0.269110 0.518864 0.009694 0.000754 -0.255999 -1.083019 0.388414 -0.208095 0.241106 0.133138 -0.159627 0.616743 0.121877 0.295224 0.210658 -0.499425 -0.868231 0.547324 0.230218 -0.283374 0.932144 0.641918 0.547121 0.074630
好 1.171416 0.460382 -0.041293 -0.441610 0.053992 0.515237 -0.864565 0.411532 -0.223648 -0.219647 0.013887 0.214687 -0.024707 0.166430 0.463554 1.203348 0.269017 0.605868 0.451295 -0.042626 -0.378168 0.116087 -0.303841 0.667268 -0.012911 -0.317880 0.123392 0.027644 -0.036220 0.040086 0.003872 0.362817 -0.111532 0.225369 -1.289383 -0.033884 0.746895 0.496030 0.526355 0.327952 -1.167687 0.626075 0.137724 -0.255675 -0.052838 0.657948 0.968470 0.066573 0.643823 -1.013117 -0.360211 0.064417 0.331684 -0.378576 -0.931479 -0.719064 0.097287 0.248551 0.202230 -0.256267 1.086979 0.482119 -0.376974 0.505072
光 0.015418 0.307693 0.042310 0.872933 0.310769 -1.107052 1.141020 -0.104594 1.896482 1.453559 -1.030087 0.465130 1.218836 0.201505 -0.475369 -0.669691 0.208247 -0.076515 1.096171 0.758041 0.951405 -0.129544 -0.382762 0.366281 -0.098448 0.899426 0.175663 -1.372809 0.437260 0.600539 -0.970490 0.800999 -0.230441 0.132141 -1.216239 -0.353189 -0.155719 0.986390 -0.978258 0.329184 -0.641631 0.378971 0.978270 -0.209441 0.845822 -0.571906 -0.623914 -0.387786 0.475339 -0.824744 -0.119101 0.595838 0.988162 0.528610 -0.446645 0.124469 0.421077 0.809873 0.363614 -0.193874 -0.276379 -0.904500 0.925458 -0.908877
岁 2.000141 0.352152 -0.454897 0.657694 -0.874365 0.148243 0.062358 -0.096201 0.848736 -0.050058 -0.487498 -0.486308 1.582128 0.471951 -1.454149 0.077308 0.587134 0.241770 -0.420746 -0.165613 -0.435791 0.767400 -0.306922 0.721867 -0.120238 -0.419629 -0.631337 -0.158437 -0.770891 0.280984 -0.928415 -0.509938 0.451637 -1.180262 0.692733 0.240374 -0.960671 -0.348743 -0.351644 1.050103 -0.795063 -0.344193 0.641394 -0.300714 0.582197 -0.015463 -0.723656 2.062104 0.249294 0.032446 -0.272285 -0.635234 -0.240875 0.226970 0.315128 -0.701256 0.003243 0.808943 -0.181386 0.282562 0.799287 0.307646 0.897322 0.566152
二 0.669141 0.326220 -1.002486 0.060684 0.208997 1.321496 -0.671539 0.351878 0.647108 0.305485 -1.414160 -0.850347 -0.128784 0.734422 -0.012658 -1.335984 0.288413 0.596642 -0.370958 -0.269487 0.003438 0.650895 0.580590 1.471577 -0.284341 0.797980 0.869532 0.577047 -0.541179 -0.354311 -0.395089 1.046518 -0.335298 -0.253300 -0.009693 -0.328766 0.175495 0.577405 0.461297 -1.430322 -0.485362 -0.601650 0.707568 -1.089983 0.609641 -0.965499 0.572068 0.735635 -0.388265 0.734621 -0.351476 0.692945 0.223156 -0.369477 0.192460 -0.358774 0.476422 -0.408792 0.271993 0.270865 0.012303 -0.186742 -0.897998 0.695994
情 0.810785 0.328557 0.673423 -0.655800 -0.435572 -0.054316 -0.533909 -0.172579 0.201567 0.346823 0.584899 -0.120984 0.340670 0.130323 0.054962 0.958050 0.430314 0.202588 -0.336324 -0.322674 -0.702569 0.263946 -0.976518 -0.447006 -0.161125 0.251308 0.335672 0.678864 -0.097086 0.050654 -0.733886 -0.158861 -0.268203 -0.161738 -0.536400 -0.069381 -0.829871 0.706033 0.836399 0.415895 -1.595873 0.133586 0.515460 -1.084900 0.478882 -0.152243 0.158434 0.635370 0.096027 -0.531353 -0.726274 -0.410630 1.170440 0.814621 0.664153 -0.876562 -0.485623 -0.084524 -0.044717 0.383889 0.186856 0.799644 0.440928 -0.115124
咽 1.357708 0.753013 -0.611882 0.527795 -0.406075 -0.987202 -0.401297 0.247280 1.220153 1.382083 -1.177572 0.922238 0.507680 1.650656 -0.587644 0.411174 0.365582 0.086846 1.405238 0.022266 0.357051 0.587186 -0.517372 -0.350926 -1.191960 0.053924 0.363719 -1.102164 0.416577 0.090678 -1.138480 0.064791 -0.017034 0.196392 -1.092820 0.108215 0.815819 -1.513685 0.283676 0.161657 -0.706763 0.806288 0.339061 -0.536205 -0.063383 -0.047761 -0.119931 0.799669 0.069257 0.422330 0.051192 0.505055 -0.024982 0.244623 -1.307768 -0.094925 -0.021883 1.050975 -0.331961 -0.574868 -0.377219 0.799148 0.187320 -0.267099
便 1.130163 -0.234087 -0.183511 0.433559 0.020591 0.514370 -0.640712 0.392393 1.516147 0.582620 -0.693047 -0.510095 -0.018159 0.749628 -0.347415 -0.590059 -0.668134 -0.624627 0.288111 0.224301 -0.040224 0.842067 0.227472 0.928621 -0.413907 0.305224 0.533276 -0.528624 0.813009 -0.047126 -0.005142 0.671060 -1.005174 -0.568183 -0.113026 -0.024711 -0.096843 0.197419 0.862177 -0.203547 -0.809728 0.136263 0.538251 -0.007454 0.108979 -0.009192 -0.293225 0.349296 0.278077 -0.316014 0.264633 -0.239198 0.241013 -0.159685 -0.639912 -0.893064 0.938630 -0.758384 0.110820 -1.213807 0.150892 0.283230 0.962787 1.344958
在 -0.086327 0.114204 -0.245124 0.263754 0.148617 0.372921 0.183864 0.073515 0.540067 -0.239872 -0.267762 0.284627 1.418975 -0.302543 -0.425682 -0.530423 0.465773 0.291485 -0.500771 -0.413381 -0.193189 0.150812 -0.132314 0.039366 0.579845 -0.003441 -0.691439 -0.115493 0.347744 -0.127488 -0.736156 0.528241 -0.754093 -0.775352 -0.535204 0.387385 -0.224979 -0.343640 -0.454206 -1.064992 -0.586047 -0.170789 -0.423861 0.708211 0.617804 0.410697 0.384664 -0.370312 -0.356912 -0.670047 -0.006756 0.587934 0.293249 0.574697 0.220987 0.226443 0.858668 -0.205708 0.748347 0.303170 0.675705 0.267294 0.257213 0.075169
天 0.647893 0.184254 -0.107675 -0.212239 -0.168127 0.095437 -0.357960 0.472888 0.392560 -0.222102 0.103537 -0.327264 -0.199909 0.441628 -0.152037 0.784273 -0.074456 0.236702 -0.081297 0.050494 0.366089 0.302442 -0.091030 -0.143899 0.155935 -1.034521 0.383172 0.038699 -0.706761 0.974948 -0.058850 0.273322 0.388494 -0.211301 -0.498490 0.274516 -0.353998 0.332673 0.474124 -0.542128 -0.753946 0.086418 0.834698 0.383729 -0.174117 0.323683 0.457079 0.720140 -0.165046 -0.743746 0.503507 0.450972 -0.304383 -0.445563 -0.707618 -0.013835 -0.394900 0.326817 0.469556 -0.439072 -0.221441 0.594285 1.006793 0.443283
急 0.772304 0.731432 0.314868 -0.422342 0.360751 0.362540 -0.354809 -0.060214 0.104100 0.749975 0.209621 -0.042759 -0.347144 1.292881 0.099247 -0.292908 0.327039 -0.031791 0.602666 0.051409 0.491130 0.077178 -0.345088 -0.085670 0.359151 -0.919781 1.021076 -0.228930 -0.267921 0.128814 -0.329135 -0.027422 -0.468829 -0.318044 0.809733 0.237840 -0.974437 -0.371331 0.449999 0.221573 -1.121093 -0.221799 -0.306954 -0.424650 0.269367 0.040605 -0.339014 -0.116932 0.728944 -0.919000 -0.133410 0.547933 -0.328000 0.288694 0.168031 0.250580 0.028670 0.116402 0.061746 0.238216 0.323314 0.031383 0.594303 0.098504
食 1.331560 -0.678419 -0.087217 0.169275 0.438351 1.342076 -0.399574 -0.099328 1.256699 1.408739 0.123003 -0.282331 -0.480689 0.780250 0.417754 -0.253281 -0.403810 -0.553806 -0.318923 0.063534 -0.904868 0.556940 -0.112592 0.619352 -0.852580 0.150679 0.646688 0.311521 -0.252003 0.144797 -0.155310 0.339050 -0.689544 -0.680388 0.032384 -0.415912 0.679537 0.207841 0.319247 -0.789582 -0.786470 -0.076829 1.317713 1.102815 -0.958626 -1.006599 0.492246 0.582159 -0.218549 -1.160506 -0.461528 -0.685585 0.206495 0.094967 -1.424463 -0.604299 0.859722 -0.422331 -0.212336 -0.487010 -0.626555 -0.121318 0.439029 0.764546
鸣 0.242444 -0.066798 -1.114053 -0.085756 0.054938 0.395577 -0.003356 -0.332158 0.218060 -0.294001 -0.253184 0.148312 0.484969 0.995107 0.294782 0.274610 0.280285 -1.424800 -0.482143 0.802507 0.100766 0.079131 -0.123976 0.514233 -0.112102 0.188075 -1.206420 -0.016561 -0.523372 0.850794 -0.523332 0.929982 -1.135086 0.041141 -0.592347 1.750821 -0.548561 -0.671146 0.720463 -1.039163 0.078114 -0.149275 0.386040 0.769615 0.974984 0.483698 1.160787 -0.434061 -1.002945 -0.743897 -0.456307 -0.227003 0.230366 -0.550269 -0.168312 -0.893773 0.861545 0.098040 -0.797985 0.175332 -0.215094 0.817687 0.117628 0.033239
律 0.009536 0.013762 -0.021656 0.645937 -0.109607 0.999069 -0.527726 -0.632883 1.308502 -0.024405 0.055759 0.350387 1.106573 -0.128624 -0.965767 -0.550636 -0.313636 -0.231984 1.439949 0.140509 0.336712 0.935650 -0.284204 0.641624 -1.262666 -0.674804 -0.796472 -0.892994 -0.184326 0.541106 0.509939 -0.593031 -0.473750 -0.411027 -0.489107 1.824587 -0.245350 0.220190 0.702188 -0.128629 -0.781802 -0.416746 0.932450 -0.439724 0.789889 -0.546703 -0.601307 -0.072902 -0.178313 0.386443 0.194169 0.356010 0.254232 -0.145385 0.094529 -0.829114 -0.104756 -0.151566 -0.674834 0.112013 -0.839844 0.526017 -0.183659 0.289784
肝 0.510874 -0.047381 -0.990448 0.286170 -0.560617 -0.094268 -0.389408 -0.191976 1.049469 0.413805 0.496335 0.827007 0.636563 0.605924 -0.165700 -0.337859 0.318125 -0.084550 0.420891 0.418857 0.528860 0.787603 0.241376 -0.822623 -0.896812 0.819666 -0.668788 0.050624 -0.428265 0.287620 -0.505304 -0.355379 -1.563829 -0.523952 0.343255 0.802640 0.872518 0.352350 0.541458 -0.480805 0.032785 -0.206806 0.606713 -0.562310 -0.722473 -0.842368 0.449255 0.244439 -0.456399 -0.659231 -0.975823 0.215951 0.045042 0.104943 -0.622914 0.236557 -1.034081 1.143254 -0.276751 0.651242 0.124748 0.340448 -0.210300 -0.409791
因 0.099700 0.485105 -0.465148 0.007365 -0.216783 0.079813 -0.120228 0.025228 -0.136943 0.843564 0.317602 -0.072093 0.491831 0.740212 -0.439155 0.731922 -0.053260 0.322256 -0.650328 0.792069 0.208197 -0.464599 -0.042639 -0.091272 0.488330 0.082619 0.107833 -0.471839 0.059735 0.020304 0.097922 0.124643 0.372027 -0.133287 -0.722843 0.313928 -0.587978 -0.422484 0.142061 -0.402605 -0.773848 -0.053339 1.481844 -0.140800 0.125077 0.365159 0.394768 0.387043 0.564915 -0.214483 0.516258 1.222617 -0.698399 0.049363 -0.259088 -0.185070 -0.752741 -0.181453 0.592091 -0.393807 0.355489 0.316634 0.613183 -0.052963
时 0.360821 0.203369 0.094487 -0.204016 0.196020 0.221832 -0.593992 -0.427554 0.575320 0.471817 0.231729 -0.677406 0.036400 0.021635 -0.010065 0.422742 -0.161102 -0.147988 -0.269675 -0.610681 0.312914 0.265656 -0.327309 0.102704 0.053793 -0.649171 -0.050731 0.458370 -0.458663 0.210575 0.303104 0.332352 0.053473 0.105723 -0.913549 0.106148 -0.274871 0.306914 0.209088 -0.216435 -0.299848 0.567804 0.310933 0.049628 -0.560655 -0.055830 0.120108 0.407019 -0.122526 -0.425337 0.382158 0.022869 -0.618378 -0.200718 -0.153841 -0.052801 0.226757 0.112720 0.478024 -0.598538 -0.006727 0.636169 1.012615 -0.261469
行 -0.586080 0.194387 0.253067 0.560257 0.686135 0.135796 0.495288 -0.025563 0.455015 0.269319 -0.038408 0.206951 0.514767 0.292127 -0.171141 -0.270563 0.291393 0.371696 0.086465 -0.312525 0.127982 0.117520 0.067932 -0.176208 0.034400 -0.440628 0.269848 0.239684 -0.887087 -0.233925 -0.216895 0.238837 -0.800227 0.212069 -0.110964 0.234245 -0.345043 0.350728 0.243837 -0.326035 -0.337919 -0.203430 -0.338057 0.175029 -0.116985 -0.020678 0.117249 -0.304006 0.310972 -0.218886 0.085686 0.472933 -0.206128 0.275082 0.435458 -0.069370 -0.597879 0.073409 0.418194 0.051248 0.749751 0.466381 0.798517 0.371050
关 0.067297 0.490023 -0.214458 0.321586 0.026585 0.653547 0.573335 -0.398224 0.808217 0.068472 -0.110100 -0.876392 0.700548 0.230657 0.309323 0.365343 -0.202979 0.320690 0.434733 0.794737 -0.086086 0.782387 -0.598380 -0.295907 -0.712035 0.076728 0.444272 -0.109559 0.328471 -0.146917 -0.599279 1.114664 0.339025 0.196071 -0.436009 0.286635 -0.157628 0.403013 0.267462 -0.042575 -0.386896 -0.395002 0.340910 -0.623409 0.217137 0.420536 0.385757 -0.795716 -0.134534 -0.506271 -0.417620 0.177345 0.370588 0.287253 0.092614 -0.749695 -0.868221 -0.027632 -0.026061 -0.413855 0.416415 -0.071822 -0.728436 -0.374482
红 0.367943 0.845127 -0.788045 0.193810 0.191272 0.108815 -0.444806 -0.095635 0.355896 -1.016995 -0.320740 0.678869 -0.501484 0.061077 -0.059180 -0.196029 -0.634522 0.305912 0.077957 -0.382585 0.165239 0.298667 0.241547 0.418155 0.482035 0.636069 0.630833 -0.095371 -0.490517 -0.558907 -0.734179 -0.098487 0.071394 0.289463 -1.059814 0.003091 -0.914403 0.260176 -0.138622 -0.277001 -0.467146 0.555916 0.283222 -0.466643 -0.360363 -0.557437 -0.264994 0.051538 -0.120252 -1.284395 -0.267949 -0.430362 -0.018454 0.404972 -0.042306 -0.620055 0.082190 -0.025351 -0.277349 -0.115554 -0.977109 0.081845 0.450666 -0.707502
外 0.794159 0.428665 0.124732 0.361964 0.155764 0.560783 -0.488905 -0.116358 0.746753 0.100907 0.155181 0.744416 0.587873 -0.131248 0.507606 -0.125223 0.033141 1.067438 -0.535634 0.184695 -0.300095 0.173185 0.183065 0.064961 0.166445 0.067117 -0.408348 -0.073034 0.285960 -0.057935 -1.027275 0.429029 -0.570854 0.871534 -0.252671 -0.003044 -0.258994 -0.352900 -0.017957 -0.062879 -0.468670 -0.611211 0.426913 -0.037968 0.373408 -0.042569 0.273981 -0.345987 0.421847 -0.312916 0.511246 0.047431 -0.454365 0.238203 -0.028945 -1.089842 -0.353410 0.017784 0.667807 -0.412597 -0.427653 -0.845164 0.817559 0.019160
征 0.613014 1.486192 -0.476774 -0.245047 0.410882 0.741616 -0.287068 0.353041 0.536689 0.277260 -1.569037 -0.332743 0.579250 0.587062 0.288998 -0.269713 0.777560 -0.568087 -0.374492 -0.089862 -0.682593 -0.567038 0.386309 0.334739 -0.133611 0.391709 1.034703 0.861759 0.473671 -0.294610 -0.219837 0.694678 -0.605888 0.351959 0.096194 0.328809 0.184788 -0.239225 0.281787 0.595167 -0.611201 -0.190917 0.844539 -0.098901 -0.529908 0.891476 0.660176 0.164862 -0.082259 -1.206862 -0.525254 -0.961222 0.538022 0.200110 1.009271 -0.032468 0.090630 0.429927 -0.488858 0.516554 1.101137 -0.757727 -0.472591 -1.162960
断 -0.196545 0.578616 -0.181122 0.500344 -0.212306 0.894937 0.259837 -0.515678 0.266838 1.034380 -0.104450 0.000662 0.308945 0.006905 0.619102 -0.081861 0.294936 -0.378003 0.476279 0.021953 -0.111963 -0.358380 -0.051201 0.019494 -0.467341 -0.224648 0.628606 -0.682165 -0.040639 -0.208613 0.199706 0.343097 -0.178966 -0.316420 -0.390873 -0.019142 -0.328007 -0.545267 0.538743 -0.270150 0.180539 -0.469321 0.447607 -0.328051 0.665026 -0.127348 0.257125 0.260045 0.415024 -0.346119 -0.024042 0.092167 0.374800 -0.155044 -0.178433 0.101381 -0.779542 0.431674 0.003163 -0.581704 0.028935 0.121696 0.477393 0.362482
助 0.119561 0.099594 -0.203555 0.590156 0.115699 -0.710877 0.145914 -0.614717 1.000495 0.684023 -0.820490 -0.178128 0.982120 -0.094387 1.242450 0.522463 0.044215 0.099082 -0.346437 -0.028219 0.953144 0.313484 -0.083590 0.599292 -0.149496 -0.379845 1.274295 -0.303304 0.256711 0.280107 -0.983017 0.038330 -1.007032 -1.065360 0.180024 0.397648 -0.396323 0.271340 -0.088912 0.125075 -0.035056 -0.213547 1.070686 -0.438379 -0.286103 -0.215779 0.640438 -0.427829 -0.074570 -0.234627 0.885832 -0.371944 0.128474 -0.539659 0.856195 -0.768499 -0.522522 -0.012708 0.321913 0.980702 0.403296 0.264152 0.325713 0.249360
术 0.304113 1.173618 0.275795 0.022373 0.085085 -0.013666 0.024801 -0.287821 0.882293 0.287042 0.065906 0.112301 -0.177710 -0.203074 -0.139627 0.504211 -0.054225 0.886450 0.426281 0.028685 0.353511 0.587740 -0.025479 -0.306101 -0.799681 -0.400425 0.482723 0.083610 -0.407698 0.983551 -0.410290 -0.359425 -0.431170 -0.208185 -0.392511 -0.353549 0.628959 0.248491 -0.934147 -0.395560 -0.670004 -0.158590 0.087447 0.290372 0.189345 0.444888 0.172535 -0.073528 0.922936 -0.703103 -0.064313 0.476095 -0.699097 0.439477 0.131768 -0.277770 -0.152934 0.533703 0.328396 -0.000760 0.015146 -0.200577 0.517602 0.110788
各 -0.356117 -0.193250 -0.493184 0.421910 1.197679 0.096497 -0.188286 0.273679 1.295454 0.420155 0.233750 -0.361666 1.560633 0.352361 0.358719 0.223701 0.176737 0.301021 1.688645 -1.025249 0.164109 1.373153 0.471828 0.269237 -0.708758 -0.020982 0.416626 0.238896 0.371191 0.396138 0.443690 1.045563 0.791027 0.099649 -0.634866 1.604596 -0.878785 -0.667112 0.228246 0.622602 -0.607119 -0.155345 1.135615 0.267980 0.998394 -0.033018 0.501745 -0.072613 -0.433554 0.018810 -0.191782 -0.363617 -0.941287 0.384295 -0.243574 -1.175261 0.030988 -1.088865 0.517051 0.792857 0.477738 -0.728307 -1.235930 -0.122116
皮 0.069552 0.284162 -0.321691 -0.196360 -0.021993 0.213968 -0.049101 -0.127226 0.568534 -0.078905 0.485209 0.110263 0.478185 -0.020264 -0.216985 0.195894 -0.048605 0.081116 0.148238 -0.631613 0.126882 0.000578 0.179777 -0.094876 0.140057 0.378636 -0.511449 -1.226210 0.036199 0.135940 -0.772400 0.575177 -0.368450 0.027225 -0.753504 0.695604 0.519251 -0.007157 -0.794369 -0.301560 0.146941 -0.484271 0.094772 -0.244918 -0.489039 0.117633 0.768533 -0.187590 0.214231 -0.472745 -0.952961 -0.640460 -0.800153 0.237184 -0.377051 -0.003874 -0.059437 -0.135873 0.345449 0.150156 -0.004905 0.648909 0.671826 -0.191745
巴 -0.890004 0.617443 -1.487231 -1.784468 0.581863 0.661895 0.927445 -0.603032 1.236106 -0.490169 -1.496475 -0.734261 0.834179 1.023680 -0.601562 -0.307540 0.923430 -0.647309 0.777753 0.043203 -0.318616 -1.570119 0.088199 0.237418 0.395916 0.674287 -0.494040 0.231145 1.058759 -0.112611 -1.542686 -0.633533 -0.394038 -0.584620 -0.207356 0.995448 -1.063375 0.836335 -0.050241 -0.618115 -0.897959 0.691698 -0.165594 0.018928 0.207987 0.186075 0.642753 0.308271 -0.321793 -1.248083 0.000453 -1.061882 -0.921572 0.064923 -1.154573 -0.726720 0.319176 0.287096 -0.225197 1.473200 0.825913 -0.002224 -0.378103 -1.035545
辅 0.317623 0.220149 -0.343218 0.757138 0.265774 -0.696749 0.074174 -0.595499 0.926053 0.775020 -1.072105 -0.308059 1.054342 -0.279740 1.519711 0.548907 -0.022693 0.348893 -0.449119 -0.007872 1.154110 0.415672 -0.183631 0.487085 -0.300732 -0.469620 1.420446 -0.307042 0.217020 0.245210 -1.284795 0.025663 -1.100169 -1.001001 -0.017301 0.495570 -0.199937 0.218176 -0.110309 0.121653 0.130619 -0.112820 1.141712 -0.331101 -0.402015 -0.225001 0.818991 -0.387770 -0.139199 -0.275215 0.833471 -0.766075 0.074456 -0.547164 0.652934 -0.691430 -0.458288 0.031711 0.334789 1.217998 0.399550 0.347734 0.153211 0.195092
（ 0.190744 0.378228 -0.878660 0.332813 0.047948 0.069019 0.210224 -0.759748 0.548906 -0.022086 -0.059207 -0.169308 -0.302738 0.456784 -0.066380 0.405389 -0.147766 -0.277489 -0.343200 -0.090601 -0.401061 0.587649 0.402981 0.302914 -0.012333 -0.772788 -0.482377 -0.225387 -0.241649 0.478102 -0.569569 0.666474 -1.024414 -0.076571 0.036395 0.546575 -0.045931 0.234622 0.262265 0.175488 -0.385664 -0.457970 -0.051259 0.251635 0.112958 -0.438921 -0.063473 -0.172663 -0.207168 -0.006917 0.606142 0.271830 0.952216 0.372463 0.430488 -0.359481 -0.306737 0.084074 -0.067832 0.804853 0.020167 -0.214731 -0.173084 0.273780
门 -0.085202 0.655873 -0.210937 0.158794 -0.281858 -0.279246 -0.044025 0.159205 0.572966 -0.027161 -0.053284 0.379842 -0.067775 0.416267 0.472426 -0.133045 0.224092 -0.282441 -0.172655 0.176167 0.247039 -0.080765 0.502250 0.130947 0.315874 -0.450157 1.013702 -0.238400 0.038433 0.730811 -0.054955 1.037264 -0.438553 -0.389567 -0.060361 0.339337 -1.047300 -0.188814 0.498558 0.244971 -0.454724 0.086945 0.132729 -0.446843 0.334446 0.074826 0.052815 -0.467445 -0.020429 -0.276756 0.065008 0.773210 -0.305134 0.287583 -0.187339 -0.738916 -0.196687 -0.198560 0.628256 0.139827 0.399983 -0.057300 0.549737 0.429829
有 0.460259 0.116258 -0.189484 -0.220633 0.028480 0.674936 0.266459 -0.301489 -0.420157 0.290779 0.084502 -0.199386 -0.332566 0.278699 0.391445 0.332863 0.465075 0.510133 0.381853 -0.355232 0.177538 0.246778 -0.273426 -0.064076 -0.142244 0.138389 -0.563523 -0.227499 -0.320958 0.009091 -0.310889 0.405700 -0.250076 0.264851 -0.153892 0.271182 -0.384464 -0.169773 0.561100 -0.631714 -0.268722 0.159092 0.549847 0.118084 -0.369097 0.013904 0.516630 0.591731 0.463630 -0.314284 -0.253610 0.214944 -0.036099 0.287656 -0.301488 0.192144 -0.158066 -0.196263 0.098309 -0.363392 -0.146513 0.395168 0.448248 0.313999
经 -0.460892 0.290091 -0.101387 1.063014 0.338840 0.383454 0.481769 -0.422446 -0.054623 0.201283 0.428926 0.264831 0.390057 0.182818 0.325703 0.055459 0.814007 0.508247 -0.004704 0.653853 -0.843310 0.305448 0.173518 -0.253461 -0.047808 -0.522330 0.143483 0.229334 -0.515377 -0.230384 -0.775875 0.553568 -0.971991 0.047154 -0.680814 -0.576518 -0.508623 0.324394 -0.471439 0.625976 -0.614252 -0.586418 0.674054 0.066167 0.333537 -0.232615 0.931031 0.148646 0.195058 0.081955 0.484263 0.107491 -0.171276 -0.357601 -0.184088 -0.760833 0.546368 -0.673236 -0.082816 0.697320 0.280246 0.528204 0.393100 -0.713012
